digraph Tree {
node [shape=box, style="filled, rounded", color="black", fontname="helvetica"] ;
edge [fontname="helvetica"] ;
0 [label=<marital-status_Married-civ-spouse &le; 0.5<br/>gini = 0.364<br/>samples = 39073<br/>value = [29722, 9351]<br/>class = 0>, fillcolor="#eda977"] ;
1 [label=<educational-num &le; 12.5<br/>gini = 0.121<br/>samples = 21189<br/>value = [19821, 1368]<br/>class = 0>, fillcolor="#e78a47"] ;
0 -> 1 [labeldistance=2.5, labelangle=45, headlabel="True"] ;
2 [label=<hours-per-week &le; 41.5<br/>gini = 0.062<br/>samples = 16837<br/>value = [16300, 537]<br/>class = 0>, fillcolor="#e68540"] ;
1 -> 2 ;
3 [label=<age &le; 33.5<br/>gini = 0.041<br/>samples = 13877<br/>value = [13590, 287]<br/>class = 0>, fillcolor="#e6843d"] ;
2 -> 3 ;
4 [label=<age &le; 28.5<br/>gini = 0.013<br/>samples = 8223<br/>value = [8168, 55]<br/>class = 0>, fillcolor="#e5823a"] ;
3 -> 4 ;
5 [label=<occupation_Protective-serv &le; 0.5<br/>gini = 0.008<br/>samples = 6651<br/>value = [6624, 27]<br/>class = 0>, fillcolor="#e5823a"] ;
4 -> 5 ;
6 [label=<marital-status_Married-AF-spouse &le; 0.5<br/>gini = 0.007<br/>samples = 6564<br/>value = [6541, 23]<br/>class = 0>, fillcolor="#e5813a"] ;
5 -> 6 ;
7 [label=<race &le; 1.5<br/>gini = 0.007<br/>samples = 6558<br/>value = [6536, 22]<br/>class = 0>, fillcolor="#e5813a"] ;
6 -> 7 ;
8 [label=<marital-status_Separated &le; 0.5<br/>gini = 0.04<br/>samples = 247<br/>value = [242, 5]<br/>class = 0>, fillcolor="#e6843d"] ;
7 -> 8 ;
9 [label=<workclass_State-gov &le; 0.5<br/>gini = 0.032<br/>samples = 245<br/>value = [241, 4]<br/>class = 0>, fillcolor="#e5833c"] ;
8 -> 9 ;
10 [label=<occupation_Craft-repair &le; 0.5<br/>gini = 0.025<br/>samples = 240<br/>value = [237, 3]<br/>class = 0>, fillcolor="#e5833c"] ;
9 -> 10 ;
11 [label=<workclass_Self-emp-not-inc &le; 0.5<br/>gini = 0.009<br/>samples = 220<br/>value = [219, 1]<br/>class = 0>, fillcolor="#e5823a"] ;
10 -> 11 ;
12 [label=<gini = 0.0<br/>samples = 213<br/>value = [213, 0]<br/>class = 0>, fillcolor="#e58139"] ;
11 -> 12 ;
13 [label=<educational-num &le; 9.5<br/>gini = 0.245<br/>samples = 7<br/>value = [6, 1]<br/>class = 0>, fillcolor="#e9965a"] ;
11 -> 13 ;
14 [label=<gini = 0.0<br/>samples = 5<br/>value = [5, 0]<br/>class = 0>, fillcolor="#e58139"] ;
13 -> 14 ;
15 [label=<native-country_United-States &le; 0.5<br/>gini = 0.5<br/>samples = 2<br/>value = [1, 1]<br/>class = 0>, fillcolor="#ffffff"] ;
13 -> 15 ;
16 [label=<gini = 0.0<br/>samples = 1<br/>value = [1, 0]<br/>class = 0>, fillcolor="#e58139"] ;
15 -> 16 ;
17 [label=<gini = 0.0<br/>samples = 1<br/>value = [0, 1]<br/>class = 1>, fillcolor="#399de5"] ;
15 -> 17 ;
18 [label=<native-country_? &le; 0.5<br/>gini = 0.18<br/>samples = 20<br/>value = [18, 2]<br/>class = 0>, fillcolor="#e88f4f"] ;
10 -> 18 ;
19 [label=<educational-num &le; 8.0<br/>gini = 0.105<br/>samples = 18<br/>value = [17, 1]<br/>class = 0>, fillcolor="#e78845"] ;
18 -> 19 ;
20 [label=<race &le; 0.5<br/>gini = 0.444<br/>samples = 3<br/>value = [2, 1]<br/>class = 0>, fillcolor="#f2c09c"] ;
19 -> 20 ;
21 [label=<gini = 0.0<br/>samples = 2<br/>value = [2, 0]<br/>class = 0>, fillcolor="#e58139"] ;
20 -> 21 ;
22 [label=<gini = 0.0<br/>samples = 1<br/>value = [0, 1]<br/>class = 1>, fillcolor="#399de5"] ;
20 -> 22 ;
23 [label=<gini = 0.0<br/>samples = 15<br/>value = [15, 0]<br/>class = 0>, fillcolor="#e58139"] ;
19 -> 23 ;
24 [label=<educational-num &le; 11.0<br/>gini = 0.5<br/>samples = 2<br/>value = [1, 1]<br/>class = 0>, fillcolor="#ffffff"] ;
18 -> 24 ;
25 [label=<gini = 0.0<br/>samples = 1<br/>value = [0, 1]<br/>class = 1>, fillcolor="#399de5"] ;
24 -> 25 ;
26 [label=<gini = 0.0<br/>samples = 1<br/>value = [1, 0]<br/>class = 0>, fillcolor="#e58139"] ;
24 -> 26 ;
27 [label=<occupation_Transport-moving &le; 0.5<br/>gini = 0.32<br/>samples = 5<br/>value = [4, 1]<br/>class = 0>, fillcolor="#eca06a"] ;
9 -> 27 ;
28 [label=<gini = 0.0<br/>samples = 4<br/>value = [4, 0]<br/>class = 0>, fillcolor="#e58139"] ;
27 -> 28 ;
29 [label=<gini = 0.0<br/>samples = 1<br/>value = [0, 1]<br/>class = 1>, fillcolor="#399de5"] ;
27 -> 29 ;
30 [label=<workclass_Private &le; 0.5<br/>gini = 0.5<br/>samples = 2<br/>value = [1, 1]<br/>class = 0>, fillcolor="#ffffff"] ;
8 -> 30 ;
31 [label=<gini = 0.0<br/>samples = 1<br/>value = [1, 0]<br/>class = 0>, fillcolor="#e58139"] ;
30 -> 31 ;
32 [label=<gini = 0.0<br/>samples = 1<br/>value = [0, 1]<br/>class = 1>, fillcolor="#399de5"] ;
30 -> 32 ;
33 [label=<native-country_Dominican-Republic &le; 0.5<br/>gini = 0.005<br/>samples = 6311<br/>value = [6294, 17]<br/>class = 0>, fillcolor="#e5813a"] ;
7 -> 33 ;
34 [label=<educational-num &le; 10.5<br/>gini = 0.005<br/>samples = 6296<br/>value = [6280, 16]<br/>class = 0>, fillcolor="#e5813a"] ;
33 -> 34 ;
35 [label=<native-country_Guatemala &le; 0.5<br/>gini = 0.004<br/>samples = 5934<br/>value = [5923, 11]<br/>class = 0>, fillcolor="#e58139"] ;
34 -> 35 ;
36 [label=<occupation_Prof-specialty &le; 0.5<br/>gini = 0.003<br/>samples = 5914<br/>value = [5904, 10]<br/>class = 0>, fillcolor="#e58139"] ;
35 -> 36 ;
37 [label=<age &le; 21.5<br/>gini = 0.003<br/>samples = 5731<br/>value = [5723, 8]<br/>class = 0>, fillcolor="#e58139"] ;
36 -> 37 ;
38 [label=<race &le; 2.5<br/>gini = 0.001<br/>samples = 3143<br/>value = [3142, 1]<br/>class = 0>, fillcolor="#e58139"] ;
37 -> 38 ;
39 [label=<occupation_Other-service &le; 0.5<br/>gini = 0.007<br/>samples = 295<br/>value = [294, 1]<br/>class = 0>, fillcolor="#e5813a"] ;
38 -> 39 ;
40 [label=<gini = 0.0<br/>samples = 208<br/>value = [208, 0]<br/>class = 0>, fillcolor="#e58139"] ;
39 -> 40 ;
41 [label=<age &le; 19.5<br/>gini = 0.023<br/>samples = 87<br/>value = [86, 1]<br/>class = 0>, fillcolor="#e5823b"] ;
39 -> 41 ;
42 [label=<gini = 0.0<br/>samples = 57<br/>value = [57, 0]<br/>class = 0>, fillcolor="#e58139"] ;
41 -> 42 ;
43 [label=<educational-num &le; 8.5<br/>gini = 0.064<br/>samples = 30<br/>value = [29, 1]<br/>class = 0>, fillcolor="#e68540"] ;
41 -> 43 ;
44 [label=<hours-per-week &le; 30.0<br/>gini = 0.278<br/>samples = 6<br/>value = [5, 1]<br/>class = 0>, fillcolor="#ea9a61"] ;
43 -> 44 ;
45 [label=<gini = 0.0<br/>samples = 4<br/>value = [4, 0]<br/>class = 0>, fillcolor="#e58139"] ;
44 -> 45 ;
46 [label=<gender &le; 0.5<br/>gini = 0.5<br/>samples = 2<br/>value = [1, 1]<br/>class = 0>, fillcolor="#ffffff"] ;
44 -> 46 ;
47 [label=<gini = 0.0<br/>samples = 1<br/>value = [1, 0]<br/>class = 0>, fillcolor="#e58139"] ;
46 -> 47 ;
48 [label=<gini = 0.0<br/>samples = 1<br/>value = [0, 1]<br/>class = 1>, fillcolor="#399de5"] ;
46 -> 48 ;
49 [label=<gini = 0.0<br/>samples = 24<br/>value = [24, 0]<br/>class = 0>, fillcolor="#e58139"] ;
43 -> 49 ;
50 [label=<gini = 0.0<br/>samples = 2848<br/>value = [2848, 0]<br/>class = 0>, fillcolor="#e58139"] ;
38 -> 50 ;
51 [label=<educational-num &le; 9.5<br/>gini = 0.005<br/>samples = 2588<br/>value = [2581, 7]<br/>class = 0>, fillcolor="#e5813a"] ;
37 -> 51 ;
52 [label=<hours-per-week &le; 15.5<br/>gini = 0.001<br/>samples = 1511<br/>value = [1510, 1]<br/>class = 0>, fillcolor="#e58139"] ;
51 -> 52 ;
53 [label=<occupation_Sales &le; 0.5<br/>gini = 0.062<br/>samples = 31<br/>value = [30, 1]<br/>class = 0>, fillcolor="#e68540"] ;
52 -> 53 ;
54 [label=<gini = 0.0<br/>samples = 28<br/>value = [28, 0]<br/>class = 0>, fillcolor="#e58139"] ;
53 -> 54 ;
55 [label=<educational-num &le; 7.5<br/>gini = 0.444<br/>samples = 3<br/>value = [2, 1]<br/>class = 0>, fillcolor="#f2c09c"] ;
53 -> 55 ;
56 [label=<gini = 0.0<br/>samples = 2<br/>value = [2, 0]<br/>class = 0>, fillcolor="#e58139"] ;
55 -> 56 ;
57 [label=<gini = 0.0<br/>samples = 1<br/>value = [0, 1]<br/>class = 1>, fillcolor="#399de5"] ;
55 -> 57 ;
58 [label=<gini = 0.0<br/>samples = 1480<br/>value = [1480, 0]<br/>class = 0>, fillcolor="#e58139"] ;
52 -> 58 ;
59 [label=<occupation_Other-service &le; 0.5<br/>gini = 0.011<br/>samples = 1077<br/>value = [1071, 6]<br/>class = 0>, fillcolor="#e5823a"] ;
51 -> 59 ;
60 [label=<occupation_Exec-managerial &le; 0.5<br/>gini = 0.007<br/>samples = 895<br/>value = [892, 3]<br/>class = 0>, fillcolor="#e5813a"] ;
59 -> 60 ;
61 [label=<hours-per-week &le; 37.5<br/>gini = 0.005<br/>samples = 833<br/>value = [831, 2]<br/>class = 0>, fillcolor="#e58139"] ;
60 -> 61 ;
62 [label=<hours-per-week &le; 36.5<br/>gini = 0.011<br/>samples = 347<br/>value = [345, 2]<br/>class = 0>, fillcolor="#e5823a"] ;
61 -> 62 ;
63 [label=<occupation_Sales &le; 0.5<br/>gini = 0.006<br/>samples = 338<br/>value = [337, 1]<br/>class = 0>, fillcolor="#e5813a"] ;
62 -> 63 ;
64 [label=<gini = 0.0<br/>samples = 250<br/>value = [250, 0]<br/>class = 0>, fillcolor="#e58139"] ;
63 -> 64 ;
65 [label=<age &le; 22.5<br/>gini = 0.022<br/>samples = 88<br/>value = [87, 1]<br/>class = 0>, fillcolor="#e5823b"] ;
63 -> 65 ;
66 [label=<gender &le; 0.5<br/>gini = 0.056<br/>samples = 35<br/>value = [34, 1]<br/>class = 0>, fillcolor="#e6853f"] ;
65 -> 66 ;
67 [label=<gini = 0.0<br/>samples = 19<br/>value = [19, 0]<br/>class = 0>, fillcolor="#e58139"] ;
66 -> 67 ;
68 [label=<hours-per-week &le; 24.5<br/>gini = 0.117<br/>samples = 16<br/>value = [15, 1]<br/>class = 0>, fillcolor="#e78946"] ;
66 -> 68 ;
69 [label=<gini = 0.0<br/>samples = 6<br/>value = [6, 0]<br/>class = 0>, fillcolor="#e58139"] ;
68 -> 69 ;
70 [label=<hours-per-week &le; 27.5<br/>gini = 0.18<br/>samples = 10<br/>value = [9, 1]<br/>class = 0>, fillcolor="#e88f4f"] ;
68 -> 70 ;
71 [label=<race &le; 3.0<br/>gini = 0.375<br/>samples = 4<br/>value = [3, 1]<br/>class = 0>, fillcolor="#eeab7b"] ;
70 -> 71 ;
72 [label=<gini = 0.0<br/>samples = 1<br/>value = [1, 0]<br/>class = 0>, fillcolor="#e58139"] ;
71 -> 72 ;
73 [label=<gini = 0.444<br/>samples = 3<br/>value = [2, 1]<br/>class = 0>, fillcolor="#f2c09c"] ;
71 -> 73 ;
74 [label=<gini = 0.0<br/>samples = 6<br/>value = [6, 0]<br/>class = 0>, fillcolor="#e58139"] ;
70 -> 74 ;
75 [label=<gini = 0.0<br/>samples = 53<br/>value = [53, 0]<br/>class = 0>, fillcolor="#e58139"] ;
65 -> 75 ;
76 [label=<occupation_? &le; 0.5<br/>gini = 0.198<br/>samples = 9<br/>value = [8, 1]<br/>class = 0>, fillcolor="#e89152"] ;
62 -> 76 ;
77 [label=<gini = 0.0<br/>samples = 8<br/>value = [8, 0]<br/>class = 0>, fillcolor="#e58139"] ;
76 -> 77 ;
78 [label=<gini = 0.0<br/>samples = 1<br/>value = [0, 1]<br/>class = 1>, fillcolor="#399de5"] ;
76 -> 78 ;
79 [label=<gini = 0.0<br/>samples = 486<br/>value = [486, 0]<br/>class = 0>, fillcolor="#e58139"] ;
61 -> 79 ;
80 [label=<age &le; 27.5<br/>gini = 0.032<br/>samples = 62<br/>value = [61, 1]<br/>class = 0>, fillcolor="#e5833c"] ;
60 -> 80 ;
81 [label=<gini = 0.0<br/>samples = 51<br/>value = [51, 0]<br/>class = 0>, fillcolor="#e58139"] ;
80 -> 81 ;
82 [label=<hours-per-week &le; 39.0<br/>gini = 0.165<br/>samples = 11<br/>value = [10, 1]<br/>class = 0>, fillcolor="#e88e4d"] ;
80 -> 82 ;
83 [label=<gini = 0.0<br/>samples = 4<br/>value = [4, 0]<br/>class = 0>, fillcolor="#e58139"] ;
82 -> 83 ;
84 [label=<workclass_Private &le; 0.5<br/>gini = 0.245<br/>samples = 7<br/>value = [6, 1]<br/>class = 0>, fillcolor="#e9965a"] ;
82 -> 84 ;
85 [label=<gini = 0.0<br/>samples = 2<br/>value = [2, 0]<br/>class = 0>, fillcolor="#e58139"] ;
84 -> 85 ;
86 [label=<marital-status_Never-married &le; 0.5<br/>gini = 0.32<br/>samples = 5<br/>value = [4, 1]<br/>class = 0>, fillcolor="#eca06a"] ;
84 -> 86 ;
87 [label=<gini = 0.0<br/>samples = 1<br/>value = [1, 0]<br/>class = 0>, fillcolor="#e58139"] ;
86 -> 87 ;
88 [label=<native-country_? &le; 0.5<br/>gini = 0.375<br/>samples = 4<br/>value = [3, 1]<br/>class = 0>, fillcolor="#eeab7b"] ;
86 -> 88 ;
89 [label=<gini = 0.444<br/>samples = 3<br/>value = [2, 1]<br/>class = 0>, fillcolor="#f2c09c"] ;
88 -> 89 ;
90 [label=<gini = 0.0<br/>samples = 1<br/>value = [1, 0]<br/>class = 0>, fillcolor="#e58139"] ;
88 -> 90 ;
91 [label=<marital-status_Never-married &le; 0.5<br/>gini = 0.032<br/>samples = 182<br/>value = [179, 3]<br/>class = 0>, fillcolor="#e5833c"] ;
59 -> 91 ;
92 [label=<hours-per-week &le; 39.0<br/>gini = 0.219<br/>samples = 16<br/>value = [14, 2]<br/>class = 0>, fillcolor="#e99355"] ;
91 -> 92 ;
93 [label=<gini = 0.0<br/>samples = 8<br/>value = [8, 0]<br/>class = 0>, fillcolor="#e58139"] ;
92 -> 93 ;
94 [label=<age &le; 26.0<br/>gini = 0.375<br/>samples = 8<br/>value = [6, 2]<br/>class = 0>, fillcolor="#eeab7b"] ;
92 -> 94 ;
95 [label=<workclass_State-gov &le; 0.5<br/>gini = 0.444<br/>samples = 6<br/>value = [4, 2]<br/>class = 0>, fillcolor="#f2c09c"] ;
94 -> 95 ;
96 [label=<age &le; 23.5<br/>gini = 0.32<br/>samples = 5<br/>value = [4, 1]<br/>class = 0>, fillcolor="#eca06a"] ;
95 -> 96 ;
97 [label=<gender &le; 0.5<br/>gini = 0.444<br/>samples = 3<br/>value = [2, 1]<br/>class = 0>, fillcolor="#f2c09c"] ;
96 -> 97 ;
98 [label=<gini = 0.0<br/>samples = 1<br/>value = [1, 0]<br/>class = 0>, fillcolor="#e58139"] ;
97 -> 98 ;
99 [label=<gini = 0.5<br/>samples = 2<br/>value = [1, 1]<br/>class = 0>, fillcolor="#ffffff"] ;
97 -> 99 ;
100 [label=<gini = 0.0<br/>samples = 2<br/>value = [2, 0]<br/>class = 0>, fillcolor="#e58139"] ;
96 -> 100 ;
101 [label=<gini = 0.0<br/>samples = 1<br/>value = [0, 1]<br/>class = 1>, fillcolor="#399de5"] ;
95 -> 101 ;
102 [label=<gini = 0.0<br/>samples = 2<br/>value = [2, 0]<br/>class = 0>, fillcolor="#e58139"] ;
94 -> 102 ;
103 [label=<age &le; 22.5<br/>gini = 0.012<br/>samples = 166<br/>value = [165, 1]<br/>class = 0>, fillcolor="#e5823a"] ;
91 -> 103 ;
104 [label=<hours-per-week &le; 31.0<br/>gini = 0.044<br/>samples = 44<br/>value = [43, 1]<br/>class = 0>, fillcolor="#e6843e"] ;
103 -> 104 ;
105 [label=<gini = 0.0<br/>samples = 27<br/>value = [27, 0]<br/>class = 0>, fillcolor="#e58139"] ;
104 -> 105 ;
106 [label=<hours-per-week &le; 33.5<br/>gini = 0.111<br/>samples = 17<br/>value = [16, 1]<br/>class = 0>, fillcolor="#e78945"] ;
104 -> 106 ;
107 [label=<gini = 0.0<br/>samples = 1<br/>value = [0, 1]<br/>class = 1>, fillcolor="#399de5"] ;
106 -> 107 ;
108 [label=<gini = 0.0<br/>samples = 16<br/>value = [16, 0]<br/>class = 0>, fillcolor="#e58139"] ;
106 -> 108 ;
109 [label=<gini = 0.0<br/>samples = 122<br/>value = [122, 0]<br/>class = 0>, fillcolor="#e58139"] ;
103 -> 109 ;
110 [label=<age &le; 23.5<br/>gini = 0.022<br/>samples = 183<br/>value = [181, 2]<br/>class = 0>, fillcolor="#e5823b"] ;
36 -> 110 ;
111 [label=<gini = 0.0<br/>samples = 144<br/>value = [144, 0]<br/>class = 0>, fillcolor="#e58139"] ;
110 -> 111 ;
112 [label=<educational-num &le; 7.5<br/>gini = 0.097<br/>samples = 39<br/>value = [37, 2]<br/>class = 0>, fillcolor="#e68844"] ;
110 -> 112 ;
113 [label=<workclass_Self-emp-not-inc &le; 0.5<br/>gini = 0.375<br/>samples = 4<br/>value = [3, 1]<br/>class = 0>, fillcolor="#eeab7b"] ;
112 -> 113 ;
114 [label=<gini = 0.0<br/>samples = 1<br/>value = [0, 1]<br/>class = 1>, fillcolor="#399de5"] ;
113 -> 114 ;
115 [label=<gini = 0.0<br/>samples = 3<br/>value = [3, 0]<br/>class = 0>, fillcolor="#e58139"] ;
113 -> 115 ;
116 [label=<educational-num &le; 9.5<br/>gini = 0.056<br/>samples = 35<br/>value = [34, 1]<br/>class = 0>, fillcolor="#e6853f"] ;
112 -> 116 ;
117 [label=<gender &le; 0.5<br/>gini = 0.133<br/>samples = 14<br/>value = [13, 1]<br/>class = 0>, fillcolor="#e78b48"] ;
116 -> 117 ;
118 [label=<gini = 0.0<br/>samples = 9<br/>value = [9, 0]<br/>class = 0>, fillcolor="#e58139"] ;
117 -> 118 ;
119 [label=<age &le; 27.5<br/>gini = 0.32<br/>samples = 5<br/>value = [4, 1]<br/>class = 0>, fillcolor="#eca06a"] ;
117 -> 119 ;
120 [label=<age &le; 26.0<br/>gini = 0.5<br/>samples = 2<br/>value = [1, 1]<br/>class = 0>, fillcolor="#ffffff"] ;
119 -> 120 ;
121 [label=<gini = 0.0<br/>samples = 1<br/>value = [1, 0]<br/>class = 0>, fillcolor="#e58139"] ;
120 -> 121 ;
122 [label=<gini = 0.0<br/>samples = 1<br/>value = [0, 1]<br/>class = 1>, fillcolor="#399de5"] ;
120 -> 122 ;
123 [label=<gini = 0.0<br/>samples = 3<br/>value = [3, 0]<br/>class = 0>, fillcolor="#e58139"] ;
119 -> 123 ;
124 [label=<gini = 0.0<br/>samples = 21<br/>value = [21, 0]<br/>class = 0>, fillcolor="#e58139"] ;
116 -> 124 ;
125 [label=<workclass_Private &le; 0.5<br/>gini = 0.095<br/>samples = 20<br/>value = [19, 1]<br/>class = 0>, fillcolor="#e68843"] ;
35 -> 125 ;
126 [label=<occupation_Handlers-cleaners &le; 0.5<br/>gini = 0.444<br/>samples = 3<br/>value = [2, 1]<br/>class = 0>, fillcolor="#f2c09c"] ;
125 -> 126 ;
127 [label=<gini = 0.0<br/>samples = 2<br/>value = [2, 0]<br/>class = 0>, fillcolor="#e58139"] ;
126 -> 127 ;
128 [label=<gini = 0.0<br/>samples = 1<br/>value = [0, 1]<br/>class = 1>, fillcolor="#399de5"] ;
126 -> 128 ;
129 [label=<gini = 0.0<br/>samples = 17<br/>value = [17, 0]<br/>class = 0>, fillcolor="#e58139"] ;
125 -> 129 ;
130 [label=<native-country_? &le; 0.5<br/>gini = 0.027<br/>samples = 362<br/>value = [357, 5]<br/>class = 0>, fillcolor="#e5833c"] ;
34 -> 130 ;
131 [label=<age &le; 23.5<br/>gini = 0.022<br/>samples = 354<br/>value = [350, 4]<br/>class = 0>, fillcolor="#e5823b"] ;
130 -> 131 ;
132 [label=<gini = 0.0<br/>samples = 162<br/>value = [162, 0]<br/>class = 0>, fillcolor="#e58139"] ;
131 -> 132 ;
133 [label=<gender &le; 0.5<br/>gini = 0.041<br/>samples = 192<br/>value = [188, 4]<br/>class = 0>, fillcolor="#e6843d"] ;
131 -> 133 ;
134 [label=<occupation_Exec-managerial &le; 0.5<br/>gini = 0.018<br/>samples = 108<br/>value = [107, 1]<br/>class = 0>, fillcolor="#e5823b"] ;
133 -> 134 ;
135 [label=<gini = 0.0<br/>samples = 96<br/>value = [96, 0]<br/>class = 0>, fillcolor="#e58139"] ;
134 -> 135 ;
136 [label=<educational-num &le; 11.5<br/>gini = 0.153<br/>samples = 12<br/>value = [11, 1]<br/>class = 0>, fillcolor="#e78c4b"] ;
134 -> 136 ;
137 [label=<gini = 0.0<br/>samples = 8<br/>value = [8, 0]<br/>class = 0>, fillcolor="#e58139"] ;
136 -> 137 ;
138 [label=<age &le; 26.5<br/>gini = 0.375<br/>samples = 4<br/>value = [3, 1]<br/>class = 0>, fillcolor="#eeab7b"] ;
136 -> 138 ;
139 [label=<gini = 0.0<br/>samples = 2<br/>value = [2, 0]<br/>class = 0>, fillcolor="#e58139"] ;
138 -> 139 ;
140 [label=<gini = 0.5<br/>samples = 2<br/>value = [1, 1]<br/>class = 0>, fillcolor="#ffffff"] ;
138 -> 140 ;
141 [label=<educational-num &le; 11.5<br/>gini = 0.069<br/>samples = 84<br/>value = [81, 3]<br/>class = 0>, fillcolor="#e68640"] ;
133 -> 141 ;
142 [label=<occupation_Adm-clerical &le; 0.5<br/>gini = 0.153<br/>samples = 36<br/>value = [33, 3]<br/>class = 0>, fillcolor="#e78c4b"] ;
141 -> 142 ;
143 [label=<occupation_Sales &le; 0.5<br/>gini = 0.117<br/>samples = 32<br/>value = [30, 2]<br/>class = 0>, fillcolor="#e78946"] ;
142 -> 143 ;
144 [label=<occupation_Craft-repair &le; 0.5<br/>gini = 0.074<br/>samples = 26<br/>value = [25, 1]<br/>class = 0>, fillcolor="#e68641"] ;
143 -> 144 ;
145 [label=<gini = 0.0<br/>samples = 16<br/>value = [16, 0]<br/>class = 0>, fillcolor="#e58139"] ;
144 -> 145 ;
146 [label=<age &le; 26.0<br/>gini = 0.18<br/>samples = 10<br/>value = [9, 1]<br/>class = 0>, fillcolor="#e88f4f"] ;
144 -> 146 ;
147 [label=<gini = 0.0<br/>samples = 4<br/>value = [4, 0]<br/>class = 0>, fillcolor="#e58139"] ;
146 -> 147 ;
148 [label=<hours-per-week &le; 39.0<br/>gini = 0.278<br/>samples = 6<br/>value = [5, 1]<br/>class = 0>, fillcolor="#ea9a61"] ;
146 -> 148 ;
149 [label=<gini = 0.0<br/>samples = 1<br/>value = [1, 0]<br/>class = 0>, fillcolor="#e58139"] ;
148 -> 149 ;
150 [label=<workclass_Private &le; 0.5<br/>gini = 0.32<br/>samples = 5<br/>value = [4, 1]<br/>class = 0>, fillcolor="#eca06a"] ;
148 -> 150 ;
151 [label=<gini = 0.0<br/>samples = 1<br/>value = [1, 0]<br/>class = 0>, fillcolor="#e58139"] ;
150 -> 151 ;
152 [label=<gini = 0.375<br/>samples = 4<br/>value = [3, 1]<br/>class = 0>, fillcolor="#eeab7b"] ;
150 -> 152 ;
153 [label=<age &le; 24.5<br/>gini = 0.278<br/>samples = 6<br/>value = [5, 1]<br/>class = 0>, fillcolor="#ea9a61"] ;
143 -> 153 ;
154 [label=<gini = 0.0<br/>samples = 3<br/>value = [3, 0]<br/>class = 0>, fillcolor="#e58139"] ;
153 -> 154 ;
155 [label=<age &le; 26.5<br/>gini = 0.444<br/>samples = 3<br/>value = [2, 1]<br/>class = 0>, fillcolor="#f2c09c"] ;
153 -> 155 ;
156 [label=<gini = 0.0<br/>samples = 1<br/>value = [0, 1]<br/>class = 1>, fillcolor="#399de5"] ;
155 -> 156 ;
157 [label=<gini = 0.0<br/>samples = 2<br/>value = [2, 0]<br/>class = 0>, fillcolor="#e58139"] ;
155 -> 157 ;
158 [label=<age &le; 25.0<br/>gini = 0.375<br/>samples = 4<br/>value = [3, 1]<br/>class = 0>, fillcolor="#eeab7b"] ;
142 -> 158 ;
159 [label=<gini = 0.0<br/>samples = 1<br/>value = [0, 1]<br/>class = 1>, fillcolor="#399de5"] ;
158 -> 159 ;
160 [label=<gini = 0.0<br/>samples = 3<br/>value = [3, 0]<br/>class = 0>, fillcolor="#e58139"] ;
158 -> 160 ;
161 [label=<gini = 0.0<br/>samples = 48<br/>value = [48, 0]<br/>class = 0>, fillcolor="#e58139"] ;
141 -> 161 ;
162 [label=<occupation_Handlers-cleaners &le; 0.5<br/>gini = 0.219<br/>samples = 8<br/>value = [7, 1]<br/>class = 0>, fillcolor="#e99355"] ;
130 -> 162 ;
163 [label=<gini = 0.0<br/>samples = 7<br/>value = [7, 0]<br/>class = 0>, fillcolor="#e58139"] ;
162 -> 163 ;
164 [label=<gini = 0.0<br/>samples = 1<br/>value = [0, 1]<br/>class = 1>, fillcolor="#399de5"] ;
162 -> 164 ;
165 [label=<workclass_Self-emp-not-inc &le; 0.5<br/>gini = 0.124<br/>samples = 15<br/>value = [14, 1]<br/>class = 0>, fillcolor="#e78a47"] ;
33 -> 165 ;
166 [label=<gini = 0.0<br/>samples = 14<br/>value = [14, 0]<br/>class = 0>, fillcolor="#e58139"] ;
165 -> 166 ;
167 [label=<gini = 0.0<br/>samples = 1<br/>value = [0, 1]<br/>class = 1>, fillcolor="#399de5"] ;
165 -> 167 ;
168 [label=<occupation_Other-service &le; 0.5<br/>gini = 0.278<br/>samples = 6<br/>value = [5, 1]<br/>class = 0>, fillcolor="#ea9a61"] ;
6 -> 168 ;
169 [label=<gini = 0.0<br/>samples = 5<br/>value = [5, 0]<br/>class = 0>, fillcolor="#e58139"] ;
168 -> 169 ;
170 [label=<gini = 0.0<br/>samples = 1<br/>value = [0, 1]<br/>class = 1>, fillcolor="#399de5"] ;
168 -> 170 ;
171 [label=<gender &le; 0.5<br/>gini = 0.088<br/>samples = 87<br/>value = [83, 4]<br/>class = 0>, fillcolor="#e68743"] ;
5 -> 171 ;
172 [label=<hours-per-week &le; 38.0<br/>gini = 0.245<br/>samples = 21<br/>value = [18, 3]<br/>class = 0>, fillcolor="#e9965a"] ;
171 -> 172 ;
173 [label=<gini = 0.0<br/>samples = 9<br/>value = [9, 0]<br/>class = 0>, fillcolor="#e58139"] ;
172 -> 173 ;
174 [label=<educational-num &le; 9.5<br/>gini = 0.375<br/>samples = 12<br/>value = [9, 3]<br/>class = 0>, fillcolor="#eeab7b"] ;
172 -> 174 ;
175 [label=<gini = 0.0<br/>samples = 5<br/>value = [5, 0]<br/>class = 0>, fillcolor="#e58139"] ;
174 -> 175 ;
176 [label=<race &le; 2.5<br/>gini = 0.49<br/>samples = 7<br/>value = [4, 3]<br/>class = 0>, fillcolor="#f8e0ce"] ;
174 -> 176 ;
177 [label=<age &le; 21.5<br/>gini = 0.375<br/>samples = 4<br/>value = [3, 1]<br/>class = 0>, fillcolor="#eeab7b"] ;
176 -> 177 ;
178 [label=<gini = 0.0<br/>samples = 1<br/>value = [0, 1]<br/>class = 1>, fillcolor="#399de5"] ;
177 -> 178 ;
179 [label=<gini = 0.0<br/>samples = 3<br/>value = [3, 0]<br/>class = 0>, fillcolor="#e58139"] ;
177 -> 179 ;
180 [label=<age &le; 20.5<br/>gini = 0.444<br/>samples = 3<br/>value = [1, 2]<br/>class = 1>, fillcolor="#9ccef2"] ;
176 -> 180 ;
181 [label=<gini = 0.0<br/>samples = 1<br/>value = [1, 0]<br/>class = 0>, fillcolor="#e58139"] ;
180 -> 181 ;
182 [label=<gini = 0.0<br/>samples = 2<br/>value = [0, 2]<br/>class = 1>, fillcolor="#399de5"] ;
180 -> 182 ;
183 [label=<age &le; 26.5<br/>gini = 0.03<br/>samples = 66<br/>value = [65, 1]<br/>class = 0>, fillcolor="#e5833c"] ;
171 -> 183 ;
184 [label=<gini = 0.0<br/>samples = 56<br/>value = [56, 0]<br/>class = 0>, fillcolor="#e58139"] ;
183 -> 184 ;
185 [label=<educational-num &le; 9.5<br/>gini = 0.18<br/>samples = 10<br/>value = [9, 1]<br/>class = 0>, fillcolor="#e88f4f"] ;
183 -> 185 ;
186 [label=<gini = 0.0<br/>samples = 7<br/>value = [7, 0]<br/>class = 0>, fillcolor="#e58139"] ;
185 -> 186 ;
187 [label=<age &le; 27.5<br/>gini = 0.444<br/>samples = 3<br/>value = [2, 1]<br/>class = 0>, fillcolor="#f2c09c"] ;
185 -> 187 ;
188 [label=<workclass_State-gov &le; 0.5<br/>gini = 0.5<br/>samples = 2<br/>value = [1, 1]<br/>class = 0>, fillcolor="#ffffff"] ;
187 -> 188 ;
189 [label=<gini = 0.0<br/>samples = 1<br/>value = [0, 1]<br/>class = 1>, fillcolor="#399de5"] ;
188 -> 189 ;
190 [label=<gini = 0.0<br/>samples = 1<br/>value = [1, 0]<br/>class = 0>, fillcolor="#e58139"] ;
188 -> 190 ;
191 [label=<gini = 0.0<br/>samples = 1<br/>value = [1, 0]<br/>class = 0>, fillcolor="#e58139"] ;
187 -> 191 ;
192 [label=<occupation_Prof-specialty &le; 0.5<br/>gini = 0.035<br/>samples = 1572<br/>value = [1544, 28]<br/>class = 0>, fillcolor="#e5833d"] ;
4 -> 192 ;
193 [label=<occupation_Craft-repair &le; 0.5<br/>gini = 0.031<br/>samples = 1503<br/>value = [1479, 24]<br/>class = 0>, fillcolor="#e5833c"] ;
192 -> 193 ;
194 [label=<hours-per-week &le; 40.5<br/>gini = 0.024<br/>samples = 1302<br/>value = [1286, 16]<br/>class = 0>, fillcolor="#e5833b"] ;
193 -> 194 ;
195 [label=<workclass_Self-emp-inc &le; 0.5<br/>gini = 0.023<br/>samples = 1295<br/>value = [1280, 15]<br/>class = 0>, fillcolor="#e5823b"] ;
194 -> 195 ;
196 [label=<marital-status_Widowed &le; 0.5<br/>gini = 0.022<br/>samples = 1286<br/>value = [1272, 14]<br/>class = 0>, fillcolor="#e5823b"] ;
195 -> 196 ;
197 [label=<occupation_Protective-serv &le; 0.5<br/>gini = 0.02<br/>samples = 1278<br/>value = [1265, 13]<br/>class = 0>, fillcolor="#e5823b"] ;
196 -> 197 ;
198 [label=<occupation_Exec-managerial &le; 0.5<br/>gini = 0.018<br/>samples = 1238<br/>value = [1227, 11]<br/>class = 0>, fillcolor="#e5823b"] ;
197 -> 198 ;
199 [label=<workclass_Federal-gov &le; 0.5<br/>gini = 0.016<br/>samples = 1147<br/>value = [1138, 9]<br/>class = 0>, fillcolor="#e5823b"] ;
198 -> 199 ;
200 [label=<occupation_Farming-fishing &le; 0.5<br/>gini = 0.014<br/>samples = 1119<br/>value = [1111, 8]<br/>class = 0>, fillcolor="#e5823a"] ;
199 -> 200 ;
201 [label=<marital-status_Divorced &le; 0.5<br/>gini = 0.013<br/>samples = 1086<br/>value = [1079, 7]<br/>class = 0>, fillcolor="#e5823a"] ;
200 -> 201 ;
202 [label=<workclass_Local-gov &le; 0.5<br/>gini = 0.008<br/>samples = 786<br/>value = [783, 3]<br/>class = 0>, fillcolor="#e5813a"] ;
201 -> 202 ;
203 [label=<occupation_Handlers-cleaners &le; 0.5<br/>gini = 0.005<br/>samples = 748<br/>value = [746, 2]<br/>class = 0>, fillcolor="#e5813a"] ;
202 -> 203 ;
204 [label=<hours-per-week &le; 31.0<br/>gini = 0.003<br/>samples = 679<br/>value = [678, 1]<br/>class = 0>, fillcolor="#e58139"] ;
203 -> 204 ;
205 [label=<occupation_Adm-clerical &le; 0.5<br/>gini = 0.018<br/>samples = 112<br/>value = [111, 1]<br/>class = 0>, fillcolor="#e5823b"] ;
204 -> 205 ;
206 [label=<gini = 0.0<br/>samples = 99<br/>value = [99, 0]<br/>class = 0>, fillcolor="#e58139"] ;
205 -> 206 ;
207 [label=<age &le; 32.5<br/>gini = 0.142<br/>samples = 13<br/>value = [12, 1]<br/>class = 0>, fillcolor="#e78c49"] ;
205 -> 207 ;
208 [label=<gini = 0.0<br/>samples = 10<br/>value = [10, 0]<br/>class = 0>, fillcolor="#e58139"] ;
207 -> 208 ;
209 [label=<race &le; 3.0<br/>gini = 0.444<br/>samples = 3<br/>value = [2, 1]<br/>class = 0>, fillcolor="#f2c09c"] ;
207 -> 209 ;
210 [label=<gini = 0.0<br/>samples = 2<br/>value = [2, 0]<br/>class = 0>, fillcolor="#e58139"] ;
209 -> 210 ;
211 [label=<gini = 0.0<br/>samples = 1<br/>value = [0, 1]<br/>class = 1>, fillcolor="#399de5"] ;
209 -> 211 ;
212 [label=<gini = 0.0<br/>samples = 567<br/>value = [567, 0]<br/>class = 0>, fillcolor="#e58139"] ;
204 -> 212 ;
213 [label=<gender &le; 0.5<br/>gini = 0.029<br/>samples = 69<br/>value = [68, 1]<br/>class = 0>, fillcolor="#e5833c"] ;
203 -> 213 ;
214 [label=<age &le; 30.5<br/>gini = 0.124<br/>samples = 15<br/>value = [14, 1]<br/>class = 0>, fillcolor="#e78a47"] ;
213 -> 214 ;
215 [label=<race &le; 3.0<br/>gini = 0.278<br/>samples = 6<br/>value = [5, 1]<br/>class = 0>, fillcolor="#ea9a61"] ;
214 -> 215 ;
216 [label=<race &le; 1.0<br/>gini = 0.444<br/>samples = 3<br/>value = [2, 1]<br/>class = 0>, fillcolor="#f2c09c"] ;
215 -> 216 ;
217 [label=<gini = 0.0<br/>samples = 1<br/>value = [1, 0]<br/>class = 0>, fillcolor="#e58139"] ;
216 -> 217 ;
218 [label=<age &le; 29.5<br/>gini = 0.5<br/>samples = 2<br/>value = [1, 1]<br/>class = 0>, fillcolor="#ffffff"] ;
216 -> 218 ;
219 [label=<gini = 0.0<br/>samples = 1<br/>value = [1, 0]<br/>class = 0>, fillcolor="#e58139"] ;
218 -> 219 ;
220 [label=<gini = 0.0<br/>samples = 1<br/>value = [0, 1]<br/>class = 1>, fillcolor="#399de5"] ;
218 -> 220 ;
221 [label=<gini = 0.0<br/>samples = 3<br/>value = [3, 0]<br/>class = 0>, fillcolor="#e58139"] ;
215 -> 221 ;
222 [label=<gini = 0.0<br/>samples = 9<br/>value = [9, 0]<br/>class = 0>, fillcolor="#e58139"] ;
214 -> 222 ;
223 [label=<gini = 0.0<br/>samples = 54<br/>value = [54, 0]<br/>class = 0>, fillcolor="#e58139"] ;
213 -> 223 ;
224 [label=<marital-status_Separated &le; 0.5<br/>gini = 0.051<br/>samples = 38<br/>value = [37, 1]<br/>class = 0>, fillcolor="#e6843e"] ;
202 -> 224 ;
225 [label=<gini = 0.0<br/>samples = 31<br/>value = [31, 0]<br/>class = 0>, fillcolor="#e58139"] ;
224 -> 225 ;
226 [label=<educational-num &le; 9.5<br/>gini = 0.245<br/>samples = 7<br/>value = [6, 1]<br/>class = 0>, fillcolor="#e9965a"] ;
224 -> 226 ;
227 [label=<race &le; 3.0<br/>gini = 0.444<br/>samples = 3<br/>value = [2, 1]<br/>class = 0>, fillcolor="#f2c09c"] ;
226 -> 227 ;
228 [label=<gini = 0.0<br/>samples = 1<br/>value = [1, 0]<br/>class = 0>, fillcolor="#e58139"] ;
227 -> 228 ;
229 [label=<gender &le; 0.5<br/>gini = 0.5<br/>samples = 2<br/>value = [1, 1]<br/>class = 0>, fillcolor="#ffffff"] ;
227 -> 229 ;
230 [label=<gini = 0.0<br/>samples = 1<br/>value = [1, 0]<br/>class = 0>, fillcolor="#e58139"] ;
229 -> 230 ;
231 [label=<gini = 0.0<br/>samples = 1<br/>value = [0, 1]<br/>class = 1>, fillcolor="#399de5"] ;
229 -> 231 ;
232 [label=<gini = 0.0<br/>samples = 4<br/>value = [4, 0]<br/>class = 0>, fillcolor="#e58139"] ;
226 -> 232 ;
233 [label=<occupation_Tech-support &le; 0.5<br/>gini = 0.026<br/>samples = 300<br/>value = [296, 4]<br/>class = 0>, fillcolor="#e5833c"] ;
201 -> 233 ;
234 [label=<occupation_Sales &le; 0.5<br/>gini = 0.021<br/>samples = 289<br/>value = [286, 3]<br/>class = 0>, fillcolor="#e5823b"] ;
233 -> 234 ;
235 [label=<age &le; 29.5<br/>gini = 0.015<br/>samples = 257<br/>value = [255, 2]<br/>class = 0>, fillcolor="#e5823b"] ;
234 -> 235 ;
236 [label=<occupation_Other-service &le; 0.5<br/>gini = 0.049<br/>samples = 40<br/>value = [39, 1]<br/>class = 0>, fillcolor="#e6843e"] ;
235 -> 236 ;
237 [label=<gini = 0.0<br/>samples = 30<br/>value = [30, 0]<br/>class = 0>, fillcolor="#e58139"] ;
236 -> 237 ;
238 [label=<gender &le; 0.5<br/>gini = 0.18<br/>samples = 10<br/>value = [9, 1]<br/>class = 0>, fillcolor="#e88f4f"] ;
236 -> 238 ;
239 [label=<gini = 0.0<br/>samples = 8<br/>value = [8, 0]<br/>class = 0>, fillcolor="#e58139"] ;
238 -> 239 ;
240 [label=<hours-per-week &le; 32.0<br/>gini = 0.5<br/>samples = 2<br/>value = [1, 1]<br/>class = 0>, fillcolor="#ffffff"] ;
238 -> 240 ;
241 [label=<gini = 0.0<br/>samples = 1<br/>value = [1, 0]<br/>class = 0>, fillcolor="#e58139"] ;
240 -> 241 ;
242 [label=<gini = 0.0<br/>samples = 1<br/>value = [0, 1]<br/>class = 1>, fillcolor="#399de5"] ;
240 -> 242 ;
243 [label=<hours-per-week &le; 39.0<br/>gini = 0.009<br/>samples = 217<br/>value = [216, 1]<br/>class = 0>, fillcolor="#e5823a"] ;
235 -> 243 ;
244 [label=<hours-per-week &le; 37.5<br/>gini = 0.032<br/>samples = 62<br/>value = [61, 1]<br/>class = 0>, fillcolor="#e5833c"] ;
243 -> 244 ;
245 [label=<gini = 0.0<br/>samples = 52<br/>value = [52, 0]<br/>class = 0>, fillcolor="#e58139"] ;
244 -> 245 ;
246 [label=<age &le; 31.5<br/>gini = 0.18<br/>samples = 10<br/>value = [9, 1]<br/>class = 0>, fillcolor="#e88f4f"] ;
244 -> 246 ;
247 [label=<gini = 0.0<br/>samples = 4<br/>value = [4, 0]<br/>class = 0>, fillcolor="#e58139"] ;
246 -> 247 ;
248 [label=<educational-num &le; 9.5<br/>gini = 0.278<br/>samples = 6<br/>value = [5, 1]<br/>class = 0>, fillcolor="#ea9a61"] ;
246 -> 248 ;
249 [label=<gender &le; 0.5<br/>gini = 0.375<br/>samples = 4<br/>value = [3, 1]<br/>class = 0>, fillcolor="#eeab7b"] ;
248 -> 249 ;
250 [label=<occupation_Machine-op-inspct &le; 0.5<br/>gini = 0.444<br/>samples = 3<br/>value = [2, 1]<br/>class = 0>, fillcolor="#f2c09c"] ;
249 -> 250 ;
251 [label=<gini = 0.5<br/>samples = 2<br/>value = [1, 1]<br/>class = 0>, fillcolor="#ffffff"] ;
250 -> 251 ;
252 [label=<gini = 0.0<br/>samples = 1<br/>value = [1, 0]<br/>class = 0>, fillcolor="#e58139"] ;
250 -> 252 ;
253 [label=<gini = 0.0<br/>samples = 1<br/>value = [1, 0]<br/>class = 0>, fillcolor="#e58139"] ;
249 -> 253 ;
254 [label=<gini = 0.0<br/>samples = 2<br/>value = [2, 0]<br/>class = 0>, fillcolor="#e58139"] ;
248 -> 254 ;
255 [label=<gini = 0.0<br/>samples = 155<br/>value = [155, 0]<br/>class = 0>, fillcolor="#e58139"] ;
243 -> 255 ;
256 [label=<educational-num &le; 10.5<br/>gini = 0.061<br/>samples = 32<br/>value = [31, 1]<br/>class = 0>, fillcolor="#e6853f"] ;
234 -> 256 ;
257 [label=<gini = 0.0<br/>samples = 24<br/>value = [24, 0]<br/>class = 0>, fillcolor="#e58139"] ;
256 -> 257 ;
258 [label=<age &le; 30.5<br/>gini = 0.219<br/>samples = 8<br/>value = [7, 1]<br/>class = 0>, fillcolor="#e99355"] ;
256 -> 258 ;
259 [label=<educational-num &le; 11.5<br/>gini = 0.5<br/>samples = 2<br/>value = [1, 1]<br/>class = 0>, fillcolor="#ffffff"] ;
258 -> 259 ;
260 [label=<gini = 0.0<br/>samples = 1<br/>value = [0, 1]<br/>class = 1>, fillcolor="#399de5"] ;
259 -> 260 ;
261 [label=<gini = 0.0<br/>samples = 1<br/>value = [1, 0]<br/>class = 0>, fillcolor="#e58139"] ;
259 -> 261 ;
262 [label=<gini = 0.0<br/>samples = 6<br/>value = [6, 0]<br/>class = 0>, fillcolor="#e58139"] ;
258 -> 262 ;
263 [label=<gender &le; 0.5<br/>gini = 0.165<br/>samples = 11<br/>value = [10, 1]<br/>class = 0>, fillcolor="#e88e4d"] ;
233 -> 263 ;
264 [label=<gini = 0.0<br/>samples = 10<br/>value = [10, 0]<br/>class = 0>, fillcolor="#e58139"] ;
263 -> 264 ;
265 [label=<gini = 0.0<br/>samples = 1<br/>value = [0, 1]<br/>class = 1>, fillcolor="#399de5"] ;
263 -> 265 ;
266 [label=<educational-num &le; 4.5<br/>gini = 0.059<br/>samples = 33<br/>value = [32, 1]<br/>class = 0>, fillcolor="#e6853f"] ;
200 -> 266 ;
267 [label=<age &le; 32.5<br/>gini = 0.32<br/>samples = 5<br/>value = [4, 1]<br/>class = 0>, fillcolor="#eca06a"] ;
266 -> 267 ;
268 [label=<gini = 0.0<br/>samples = 3<br/>value = [3, 0]<br/>class = 0>, fillcolor="#e58139"] ;
267 -> 268 ;
269 [label=<educational-num &le; 2.5<br/>gini = 0.5<br/>samples = 2<br/>value = [1, 1]<br/>class = 0>, fillcolor="#ffffff"] ;
267 -> 269 ;
270 [label=<gini = 0.0<br/>samples = 1<br/>value = [1, 0]<br/>class = 0>, fillcolor="#e58139"] ;
269 -> 270 ;
271 [label=<gini = 0.0<br/>samples = 1<br/>value = [0, 1]<br/>class = 1>, fillcolor="#399de5"] ;
269 -> 271 ;
272 [label=<gini = 0.0<br/>samples = 28<br/>value = [28, 0]<br/>class = 0>, fillcolor="#e58139"] ;
266 -> 272 ;
273 [label=<occupation_Other-service &le; 0.5<br/>gini = 0.069<br/>samples = 28<br/>value = [27, 1]<br/>class = 0>, fillcolor="#e68640"] ;
199 -> 273 ;
274 [label=<gini = 0.0<br/>samples = 21<br/>value = [21, 0]<br/>class = 0>, fillcolor="#e58139"] ;
273 -> 274 ;
275 [label=<age &le; 30.5<br/>gini = 0.245<br/>samples = 7<br/>value = [6, 1]<br/>class = 0>, fillcolor="#e9965a"] ;
273 -> 275 ;
276 [label=<gender &le; 0.5<br/>gini = 0.5<br/>samples = 2<br/>value = [1, 1]<br/>class = 0>, fillcolor="#ffffff"] ;
275 -> 276 ;
277 [label=<gini = 0.0<br/>samples = 1<br/>value = [0, 1]<br/>class = 1>, fillcolor="#399de5"] ;
276 -> 277 ;
278 [label=<gini = 0.0<br/>samples = 1<br/>value = [1, 0]<br/>class = 0>, fillcolor="#e58139"] ;
276 -> 278 ;
279 [label=<gini = 0.0<br/>samples = 5<br/>value = [5, 0]<br/>class = 0>, fillcolor="#e58139"] ;
275 -> 279 ;
280 [label=<educational-num &le; 7.5<br/>gini = 0.043<br/>samples = 91<br/>value = [89, 2]<br/>class = 0>, fillcolor="#e6843d"] ;
198 -> 280 ;
281 [label=<age &le; 32.5<br/>gini = 0.32<br/>samples = 5<br/>value = [4, 1]<br/>class = 0>, fillcolor="#eca06a"] ;
280 -> 281 ;
282 [label=<gini = 0.0<br/>samples = 3<br/>value = [3, 0]<br/>class = 0>, fillcolor="#e58139"] ;
281 -> 282 ;
283 [label=<marital-status_Separated &le; 0.5<br/>gini = 0.5<br/>samples = 2<br/>value = [1, 1]<br/>class = 0>, fillcolor="#ffffff"] ;
281 -> 283 ;
284 [label=<gini = 0.0<br/>samples = 1<br/>value = [0, 1]<br/>class = 1>, fillcolor="#399de5"] ;
283 -> 284 ;
285 [label=<gini = 0.0<br/>samples = 1<br/>value = [1, 0]<br/>class = 0>, fillcolor="#e58139"] ;
283 -> 285 ;
286 [label=<age &le; 30.5<br/>gini = 0.023<br/>samples = 86<br/>value = [85, 1]<br/>class = 0>, fillcolor="#e5823b"] ;
280 -> 286 ;
287 [label=<gini = 0.0<br/>samples = 35<br/>value = [35, 0]<br/>class = 0>, fillcolor="#e58139"] ;
286 -> 287 ;
288 [label=<age &le; 31.5<br/>gini = 0.038<br/>samples = 51<br/>value = [50, 1]<br/>class = 0>, fillcolor="#e6843d"] ;
286 -> 288 ;
289 [label=<marital-status_Never-married &le; 0.5<br/>gini = 0.105<br/>samples = 18<br/>value = [17, 1]<br/>class = 0>, fillcolor="#e78845"] ;
288 -> 289 ;
290 [label=<gini = 0.0<br/>samples = 7<br/>value = [7, 0]<br/>class = 0>, fillcolor="#e58139"] ;
289 -> 290 ;
291 [label=<gender &le; 0.5<br/>gini = 0.165<br/>samples = 11<br/>value = [10, 1]<br/>class = 0>, fillcolor="#e88e4d"] ;
289 -> 291 ;
292 [label=<educational-num &le; 10.5<br/>gini = 0.278<br/>samples = 6<br/>value = [5, 1]<br/>class = 0>, fillcolor="#ea9a61"] ;
291 -> 292 ;
293 [label=<hours-per-week &le; 36.0<br/>gini = 0.375<br/>samples = 4<br/>value = [3, 1]<br/>class = 0>, fillcolor="#eeab7b"] ;
292 -> 293 ;
294 [label=<gini = 0.0<br/>samples = 1<br/>value = [1, 0]<br/>class = 0>, fillcolor="#e58139"] ;
293 -> 294 ;
295 [label=<educational-num &le; 9.5<br/>gini = 0.444<br/>samples = 3<br/>value = [2, 1]<br/>class = 0>, fillcolor="#f2c09c"] ;
293 -> 295 ;
296 [label=<gini = 0.0<br/>samples = 1<br/>value = [1, 0]<br/>class = 0>, fillcolor="#e58139"] ;
295 -> 296 ;
297 [label=<gini = 0.5<br/>samples = 2<br/>value = [1, 1]<br/>class = 0>, fillcolor="#ffffff"] ;
295 -> 297 ;
298 [label=<gini = 0.0<br/>samples = 2<br/>value = [2, 0]<br/>class = 0>, fillcolor="#e58139"] ;
292 -> 298 ;
299 [label=<gini = 0.0<br/>samples = 5<br/>value = [5, 0]<br/>class = 0>, fillcolor="#e58139"] ;
291 -> 299 ;
300 [label=<gini = 0.0<br/>samples = 33<br/>value = [33, 0]<br/>class = 0>, fillcolor="#e58139"] ;
288 -> 300 ;
301 [label=<marital-status_Never-married &le; 0.5<br/>gini = 0.095<br/>samples = 40<br/>value = [38, 2]<br/>class = 0>, fillcolor="#e68843"] ;
197 -> 301 ;
302 [label=<age &le; 31.5<br/>gini = 0.245<br/>samples = 14<br/>value = [12, 2]<br/>class = 0>, fillcolor="#e9965a"] ;
301 -> 302 ;
303 [label=<age &le; 29.5<br/>gini = 0.375<br/>samples = 8<br/>value = [6, 2]<br/>class = 0>, fillcolor="#eeab7b"] ;
302 -> 303 ;
304 [label=<gini = 0.0<br/>samples = 4<br/>value = [4, 0]<br/>class = 0>, fillcolor="#e58139"] ;
303 -> 304 ;
305 [label=<workclass_Private &le; 0.5<br/>gini = 0.5<br/>samples = 4<br/>value = [2, 2]<br/>class = 0>, fillcolor="#ffffff"] ;
303 -> 305 ;
306 [label=<race &le; 3.5<br/>gini = 0.444<br/>samples = 3<br/>value = [2, 1]<br/>class = 0>, fillcolor="#f2c09c"] ;
305 -> 306 ;
307 [label=<gini = 0.0<br/>samples = 1<br/>value = [1, 0]<br/>class = 0>, fillcolor="#e58139"] ;
306 -> 307 ;
308 [label=<educational-num &le; 10.5<br/>gini = 0.5<br/>samples = 2<br/>value = [1, 1]<br/>class = 0>, fillcolor="#ffffff"] ;
306 -> 308 ;
309 [label=<gini = 0.0<br/>samples = 1<br/>value = [0, 1]<br/>class = 1>, fillcolor="#399de5"] ;
308 -> 309 ;
310 [label=<gini = 0.0<br/>samples = 1<br/>value = [1, 0]<br/>class = 0>, fillcolor="#e58139"] ;
308 -> 310 ;
311 [label=<gini = 0.0<br/>samples = 1<br/>value = [0, 1]<br/>class = 1>, fillcolor="#399de5"] ;
305 -> 311 ;
312 [label=<gini = 0.0<br/>samples = 6<br/>value = [6, 0]<br/>class = 0>, fillcolor="#e58139"] ;
302 -> 312 ;
313 [label=<gini = 0.0<br/>samples = 26<br/>value = [26, 0]<br/>class = 0>, fillcolor="#e58139"] ;
301 -> 313 ;
314 [label=<age &le; 30.0<br/>gini = 0.219<br/>samples = 8<br/>value = [7, 1]<br/>class = 0>, fillcolor="#e99355"] ;
196 -> 314 ;
315 [label=<gini = 0.0<br/>samples = 1<br/>value = [0, 1]<br/>class = 1>, fillcolor="#399de5"] ;
314 -> 315 ;
316 [label=<gini = 0.0<br/>samples = 7<br/>value = [7, 0]<br/>class = 0>, fillcolor="#e58139"] ;
314 -> 316 ;
317 [label=<educational-num &le; 9.5<br/>gini = 0.198<br/>samples = 9<br/>value = [8, 1]<br/>class = 0>, fillcolor="#e89152"] ;
195 -> 317 ;
318 [label=<gini = 0.0<br/>samples = 6<br/>value = [6, 0]<br/>class = 0>, fillcolor="#e58139"] ;
317 -> 318 ;
319 [label=<marital-status_Divorced &le; 0.5<br/>gini = 0.444<br/>samples = 3<br/>value = [2, 1]<br/>class = 0>, fillcolor="#f2c09c"] ;
317 -> 319 ;
320 [label=<gini = 0.0<br/>samples = 1<br/>value = [0, 1]<br/>class = 1>, fillcolor="#399de5"] ;
319 -> 320 ;
321 [label=<gini = 0.0<br/>samples = 2<br/>value = [2, 0]<br/>class = 0>, fillcolor="#e58139"] ;
319 -> 321 ;
322 [label=<age &le; 29.5<br/>gini = 0.245<br/>samples = 7<br/>value = [6, 1]<br/>class = 0>, fillcolor="#e9965a"] ;
194 -> 322 ;
323 [label=<gini = 0.0<br/>samples = 1<br/>value = [0, 1]<br/>class = 1>, fillcolor="#399de5"] ;
322 -> 323 ;
324 [label=<gini = 0.0<br/>samples = 6<br/>value = [6, 0]<br/>class = 0>, fillcolor="#e58139"] ;
322 -> 324 ;
325 [label=<workclass_Federal-gov &le; 0.5<br/>gini = 0.076<br/>samples = 201<br/>value = [193, 8]<br/>class = 0>, fillcolor="#e68641"] ;
193 -> 325 ;
326 [label=<educational-num &le; 9.5<br/>gini = 0.069<br/>samples = 197<br/>value = [190, 7]<br/>class = 0>, fillcolor="#e68640"] ;
325 -> 326 ;
327 [label=<age &le; 30.5<br/>gini = 0.044<br/>samples = 134<br/>value = [131, 3]<br/>class = 0>, fillcolor="#e6843e"] ;
326 -> 327 ;
328 [label=<gini = 0.0<br/>samples = 51<br/>value = [51, 0]<br/>class = 0>, fillcolor="#e58139"] ;
327 -> 328 ;
329 [label=<marital-status_Never-married &le; 0.5<br/>gini = 0.07<br/>samples = 83<br/>value = [80, 3]<br/>class = 0>, fillcolor="#e68640"] ;
327 -> 329 ;
330 [label=<gini = 0.0<br/>samples = 29<br/>value = [29, 0]<br/>class = 0>, fillcolor="#e58139"] ;
329 -> 330 ;
331 [label=<educational-num &le; 8.5<br/>gini = 0.105<br/>samples = 54<br/>value = [51, 3]<br/>class = 0>, fillcolor="#e78845"] ;
329 -> 331 ;
332 [label=<gini = 0.0<br/>samples = 15<br/>value = [15, 0]<br/>class = 0>, fillcolor="#e58139"] ;
331 -> 332 ;
333 [label=<race &le; 3.5<br/>gini = 0.142<br/>samples = 39<br/>value = [36, 3]<br/>class = 0>, fillcolor="#e78c49"] ;
331 -> 333 ;
334 [label=<gini = 0.0<br/>samples = 6<br/>value = [6, 0]<br/>class = 0>, fillcolor="#e58139"] ;
333 -> 334 ;
335 [label=<age &le; 31.5<br/>gini = 0.165<br/>samples = 33<br/>value = [30, 3]<br/>class = 0>, fillcolor="#e88e4d"] ;
333 -> 335 ;
336 [label=<hours-per-week &le; 37.5<br/>gini = 0.278<br/>samples = 6<br/>value = [5, 1]<br/>class = 0>, fillcolor="#ea9a61"] ;
335 -> 336 ;
337 [label=<gini = 0.0<br/>samples = 2<br/>value = [2, 0]<br/>class = 0>, fillcolor="#e58139"] ;
336 -> 337 ;
338 [label=<gini = 0.375<br/>samples = 4<br/>value = [3, 1]<br/>class = 0>, fillcolor="#eeab7b"] ;
336 -> 338 ;
339 [label=<workclass_Private &le; 0.5<br/>gini = 0.137<br/>samples = 27<br/>value = [25, 2]<br/>class = 0>, fillcolor="#e78b49"] ;
335 -> 339 ;
340 [label=<gini = 0.0<br/>samples = 4<br/>value = [4, 0]<br/>class = 0>, fillcolor="#e58139"] ;
339 -> 340 ;
341 [label=<age &le; 32.5<br/>gini = 0.159<br/>samples = 23<br/>value = [21, 2]<br/>class = 0>, fillcolor="#e78d4c"] ;
339 -> 341 ;
342 [label=<gender &le; 0.5<br/>gini = 0.124<br/>samples = 15<br/>value = [14, 1]<br/>class = 0>, fillcolor="#e78a47"] ;
341 -> 342 ;
343 [label=<gini = 0.0<br/>samples = 1<br/>value = [1, 0]<br/>class = 0>, fillcolor="#e58139"] ;
342 -> 343 ;
344 [label=<gini = 0.133<br/>samples = 14<br/>value = [13, 1]<br/>class = 0>, fillcolor="#e78b48"] ;
342 -> 344 ;
345 [label=<hours-per-week &le; 35.0<br/>gini = 0.219<br/>samples = 8<br/>value = [7, 1]<br/>class = 0>, fillcolor="#e99355"] ;
341 -> 345 ;
346 [label=<gini = 0.0<br/>samples = 1<br/>value = [1, 0]<br/>class = 0>, fillcolor="#e58139"] ;
345 -> 346 ;
347 [label=<hours-per-week &le; 40.5<br/>gini = 0.245<br/>samples = 7<br/>value = [6, 1]<br/>class = 0>, fillcolor="#e9965a"] ;
345 -> 347 ;
348 [label=<native-country_Mexico &le; 0.5<br/>gini = 0.278<br/>samples = 6<br/>value = [5, 1]<br/>class = 0>, fillcolor="#ea9a61"] ;
347 -> 348 ;
349 [label=<gini = 0.32<br/>samples = 5<br/>value = [4, 1]<br/>class = 0>, fillcolor="#eca06a"] ;
348 -> 349 ;
350 [label=<gini = 0.0<br/>samples = 1<br/>value = [1, 0]<br/>class = 0>, fillcolor="#e58139"] ;
348 -> 350 ;
351 [label=<gini = 0.0<br/>samples = 1<br/>value = [1, 0]<br/>class = 0>, fillcolor="#e58139"] ;
347 -> 351 ;
352 [label=<workclass_Private &le; 0.5<br/>gini = 0.119<br/>samples = 63<br/>value = [59, 4]<br/>class = 0>, fillcolor="#e78a46"] ;
326 -> 352 ;
353 [label=<gini = 0.0<br/>samples = 15<br/>value = [15, 0]<br/>class = 0>, fillcolor="#e58139"] ;
352 -> 353 ;
354 [label=<hours-per-week &le; 36.5<br/>gini = 0.153<br/>samples = 48<br/>value = [44, 4]<br/>class = 0>, fillcolor="#e78c4b"] ;
352 -> 354 ;
355 [label=<age &le; 30.0<br/>gini = 0.444<br/>samples = 3<br/>value = [2, 1]<br/>class = 0>, fillcolor="#f2c09c"] ;
354 -> 355 ;
356 [label=<gini = 0.0<br/>samples = 1<br/>value = [0, 1]<br/>class = 1>, fillcolor="#399de5"] ;
355 -> 356 ;
357 [label=<gini = 0.0<br/>samples = 2<br/>value = [2, 0]<br/>class = 0>, fillcolor="#e58139"] ;
355 -> 357 ;
358 [label=<marital-status_Never-married &le; 0.5<br/>gini = 0.124<br/>samples = 45<br/>value = [42, 3]<br/>class = 0>, fillcolor="#e78a47"] ;
354 -> 358 ;
359 [label=<gini = 0.0<br/>samples = 13<br/>value = [13, 0]<br/>class = 0>, fillcolor="#e58139"] ;
358 -> 359 ;
360 [label=<age &le; 32.5<br/>gini = 0.17<br/>samples = 32<br/>value = [29, 3]<br/>class = 0>, fillcolor="#e88e4d"] ;
358 -> 360 ;
361 [label=<educational-num &le; 10.5<br/>gini = 0.133<br/>samples = 28<br/>value = [26, 2]<br/>class = 0>, fillcolor="#e78b48"] ;
360 -> 361 ;
362 [label=<age &le; 30.5<br/>gini = 0.087<br/>samples = 22<br/>value = [21, 1]<br/>class = 0>, fillcolor="#e68742"] ;
361 -> 362 ;
363 [label=<age &le; 29.5<br/>gini = 0.133<br/>samples = 14<br/>value = [13, 1]<br/>class = 0>, fillcolor="#e78b48"] ;
362 -> 363 ;
364 [label=<gini = 0.0<br/>samples = 6<br/>value = [6, 0]<br/>class = 0>, fillcolor="#e58139"] ;
363 -> 364 ;
365 [label=<race &le; 3.0<br/>gini = 0.219<br/>samples = 8<br/>value = [7, 1]<br/>class = 0>, fillcolor="#e99355"] ;
363 -> 365 ;
366 [label=<gini = 0.0<br/>samples = 1<br/>value = [1, 0]<br/>class = 0>, fillcolor="#e58139"] ;
365 -> 366 ;
367 [label=<native-country_United-States &le; 0.5<br/>gini = 0.245<br/>samples = 7<br/>value = [6, 1]<br/>class = 0>, fillcolor="#e9965a"] ;
365 -> 367 ;
368 [label=<gini = 0.0<br/>samples = 1<br/>value = [1, 0]<br/>class = 0>, fillcolor="#e58139"] ;
367 -> 368 ;
369 [label=<gender &le; 0.5<br/>gini = 0.278<br/>samples = 6<br/>value = [5, 1]<br/>class = 0>, fillcolor="#ea9a61"] ;
367 -> 369 ;
370 [label=<gini = 0.0<br/>samples = 1<br/>value = [1, 0]<br/>class = 0>, fillcolor="#e58139"] ;
369 -> 370 ;
371 [label=<gini = 0.32<br/>samples = 5<br/>value = [4, 1]<br/>class = 0>, fillcolor="#eca06a"] ;
369 -> 371 ;
372 [label=<gini = 0.0<br/>samples = 8<br/>value = [8, 0]<br/>class = 0>, fillcolor="#e58139"] ;
362 -> 372 ;
373 [label=<age &le; 29.5<br/>gini = 0.278<br/>samples = 6<br/>value = [5, 1]<br/>class = 0>, fillcolor="#ea9a61"] ;
361 -> 373 ;
374 [label=<gini = 0.0<br/>samples = 1<br/>value = [1, 0]<br/>class = 0>, fillcolor="#e58139"] ;
373 -> 374 ;
375 [label=<age &le; 31.0<br/>gini = 0.32<br/>samples = 5<br/>value = [4, 1]<br/>class = 0>, fillcolor="#eca06a"] ;
373 -> 375 ;
376 [label=<gender &le; 0.5<br/>gini = 0.375<br/>samples = 4<br/>value = [3, 1]<br/>class = 0>, fillcolor="#eeab7b"] ;
375 -> 376 ;
377 [label=<gini = 0.0<br/>samples = 1<br/>value = [1, 0]<br/>class = 0>, fillcolor="#e58139"] ;
376 -> 377 ;
378 [label=<gini = 0.444<br/>samples = 3<br/>value = [2, 1]<br/>class = 0>, fillcolor="#f2c09c"] ;
376 -> 378 ;
379 [label=<gini = 0.0<br/>samples = 1<br/>value = [1, 0]<br/>class = 0>, fillcolor="#e58139"] ;
375 -> 379 ;
380 [label=<race &le; 3.0<br/>gini = 0.375<br/>samples = 4<br/>value = [3, 1]<br/>class = 0>, fillcolor="#eeab7b"] ;
360 -> 380 ;
381 [label=<gini = 0.5<br/>samples = 2<br/>value = [1, 1]<br/>class = 0>, fillcolor="#ffffff"] ;
380 -> 381 ;
382 [label=<gini = 0.0<br/>samples = 2<br/>value = [2, 0]<br/>class = 0>, fillcolor="#e58139"] ;
380 -> 382 ;
383 [label=<gender &le; 0.5<br/>gini = 0.375<br/>samples = 4<br/>value = [3, 1]<br/>class = 0>, fillcolor="#eeab7b"] ;
325 -> 383 ;
384 [label=<gini = 0.0<br/>samples = 1<br/>value = [0, 1]<br/>class = 1>, fillcolor="#399de5"] ;
383 -> 384 ;
385 [label=<gini = 0.0<br/>samples = 3<br/>value = [3, 0]<br/>class = 0>, fillcolor="#e58139"] ;
383 -> 385 ;
386 [label=<workclass_State-gov &le; 0.5<br/>gini = 0.109<br/>samples = 69<br/>value = [65, 4]<br/>class = 0>, fillcolor="#e78945"] ;
192 -> 386 ;
387 [label=<marital-status_Separated &le; 0.5<br/>gini = 0.061<br/>samples = 63<br/>value = [61, 2]<br/>class = 0>, fillcolor="#e6853f"] ;
386 -> 387 ;
388 [label=<age &le; 29.5<br/>gini = 0.034<br/>samples = 58<br/>value = [57, 1]<br/>class = 0>, fillcolor="#e5833c"] ;
387 -> 388 ;
389 [label=<educational-num &le; 11.5<br/>gini = 0.133<br/>samples = 14<br/>value = [13, 1]<br/>class = 0>, fillcolor="#e78b48"] ;
388 -> 389 ;
390 [label=<gini = 0.0<br/>samples = 9<br/>value = [9, 0]<br/>class = 0>, fillcolor="#e58139"] ;
389 -> 390 ;
391 [label=<marital-status_Never-married &le; 0.5<br/>gini = 0.32<br/>samples = 5<br/>value = [4, 1]<br/>class = 0>, fillcolor="#eca06a"] ;
389 -> 391 ;
392 [label=<gini = 0.0<br/>samples = 2<br/>value = [2, 0]<br/>class = 0>, fillcolor="#e58139"] ;
391 -> 392 ;
393 [label=<workclass_Private &le; 0.5<br/>gini = 0.444<br/>samples = 3<br/>value = [2, 1]<br/>class = 0>, fillcolor="#f2c09c"] ;
391 -> 393 ;
394 [label=<gini = 0.0<br/>samples = 1<br/>value = [1, 0]<br/>class = 0>, fillcolor="#e58139"] ;
393 -> 394 ;
395 [label=<native-country_United-States &le; 0.5<br/>gini = 0.5<br/>samples = 2<br/>value = [1, 1]<br/>class = 0>, fillcolor="#ffffff"] ;
393 -> 395 ;
396 [label=<gini = 0.0<br/>samples = 1<br/>value = [1, 0]<br/>class = 0>, fillcolor="#e58139"] ;
395 -> 396 ;
397 [label=<gini = 0.0<br/>samples = 1<br/>value = [0, 1]<br/>class = 1>, fillcolor="#399de5"] ;
395 -> 397 ;
398 [label=<gini = 0.0<br/>samples = 44<br/>value = [44, 0]<br/>class = 0>, fillcolor="#e58139"] ;
388 -> 398 ;
399 [label=<gender &le; 0.5<br/>gini = 0.32<br/>samples = 5<br/>value = [4, 1]<br/>class = 0>, fillcolor="#eca06a"] ;
387 -> 399 ;
400 [label=<gini = 0.0<br/>samples = 4<br/>value = [4, 0]<br/>class = 0>, fillcolor="#e58139"] ;
399 -> 400 ;
401 [label=<gini = 0.0<br/>samples = 1<br/>value = [0, 1]<br/>class = 1>, fillcolor="#399de5"] ;
399 -> 401 ;
402 [label=<gender &le; 0.5<br/>gini = 0.444<br/>samples = 6<br/>value = [4, 2]<br/>class = 0>, fillcolor="#f2c09c"] ;
386 -> 402 ;
403 [label=<gini = 0.0<br/>samples = 3<br/>value = [3, 0]<br/>class = 0>, fillcolor="#e58139"] ;
402 -> 403 ;
404 [label=<age &le; 29.5<br/>gini = 0.444<br/>samples = 3<br/>value = [1, 2]<br/>class = 1>, fillcolor="#9ccef2"] ;
402 -> 404 ;
405 [label=<gini = 0.0<br/>samples = 1<br/>value = [0, 1]<br/>class = 1>, fillcolor="#399de5"] ;
404 -> 405 ;
406 [label=<marital-status_Never-married &le; 0.5<br/>gini = 0.5<br/>samples = 2<br/>value = [1, 1]<br/>class = 0>, fillcolor="#ffffff"] ;
404 -> 406 ;
407 [label=<gini = 0.0<br/>samples = 1<br/>value = [0, 1]<br/>class = 1>, fillcolor="#399de5"] ;
406 -> 407 ;
408 [label=<gini = 0.0<br/>samples = 1<br/>value = [1, 0]<br/>class = 0>, fillcolor="#e58139"] ;
406 -> 408 ;
409 [label=<occupation_Prof-specialty &le; 0.5<br/>gini = 0.079<br/>samples = 5654<br/>value = [5422, 232]<br/>class = 0>, fillcolor="#e68641"] ;
3 -> 409 ;
410 [label=<occupation_Exec-managerial &le; 0.5<br/>gini = 0.07<br/>samples = 5368<br/>value = [5173, 195]<br/>class = 0>, fillcolor="#e68640"] ;
409 -> 410 ;
411 [label=<gender &le; 0.5<br/>gini = 0.059<br/>samples = 4942<br/>value = [4792, 150]<br/>class = 0>, fillcolor="#e6853f"] ;
410 -> 411 ;
412 [label=<native-country_India &le; 0.5<br/>gini = 0.037<br/>samples = 3112<br/>value = [3053, 59]<br/>class = 0>, fillcolor="#e6833d"] ;
411 -> 412 ;
413 [label=<marital-status_Married-AF-spouse &le; 0.5<br/>gini = 0.037<br/>samples = 3110<br/>value = [3052, 58]<br/>class = 0>, fillcolor="#e5833d"] ;
412 -> 413 ;
414 [label=<occupation_Craft-repair &le; 0.5<br/>gini = 0.036<br/>samples = 3107<br/>value = [3050, 57]<br/>class = 0>, fillcolor="#e5833d"] ;
413 -> 414 ;
415 [label=<age &le; 72.5<br/>gini = 0.033<br/>samples = 3000<br/>value = [2950, 50]<br/>class = 0>, fillcolor="#e5833c"] ;
414 -> 415 ;
416 [label=<occupation_Protective-serv &le; 0.5<br/>gini = 0.029<br/>samples = 2877<br/>value = [2834, 43]<br/>class = 0>, fillcolor="#e5833c"] ;
415 -> 416 ;
417 [label=<race &le; 3.5<br/>gini = 0.028<br/>samples = 2843<br/>value = [2803, 40]<br/>class = 0>, fillcolor="#e5833c"] ;
416 -> 417 ;
418 [label=<occupation_Transport-moving &le; 0.5<br/>gini = 0.006<br/>samples = 720<br/>value = [718, 2]<br/>class = 0>, fillcolor="#e5813a"] ;
417 -> 418 ;
419 [label=<workclass_Federal-gov &le; 0.5<br/>gini = 0.003<br/>samples = 706<br/>value = [705, 1]<br/>class = 0>, fillcolor="#e58139"] ;
418 -> 419 ;
420 [label=<gini = 0.0<br/>samples = 661<br/>value = [661, 0]<br/>class = 0>, fillcolor="#e58139"] ;
419 -> 420 ;
421 [label=<educational-num &le; 10.5<br/>gini = 0.043<br/>samples = 45<br/>value = [44, 1]<br/>class = 0>, fillcolor="#e6843d"] ;
419 -> 421 ;
422 [label=<gini = 0.0<br/>samples = 37<br/>value = [37, 0]<br/>class = 0>, fillcolor="#e58139"] ;
421 -> 422 ;
423 [label=<age &le; 43.0<br/>gini = 0.219<br/>samples = 8<br/>value = [7, 1]<br/>class = 0>, fillcolor="#e99355"] ;
421 -> 423 ;
424 [label=<age &le; 41.5<br/>gini = 0.444<br/>samples = 3<br/>value = [2, 1]<br/>class = 0>, fillcolor="#f2c09c"] ;
423 -> 424 ;
425 [label=<gini = 0.0<br/>samples = 2<br/>value = [2, 0]<br/>class = 0>, fillcolor="#e58139"] ;
424 -> 425 ;
426 [label=<gini = 0.0<br/>samples = 1<br/>value = [0, 1]<br/>class = 1>, fillcolor="#399de5"] ;
424 -> 426 ;
427 [label=<gini = 0.0<br/>samples = 5<br/>value = [5, 0]<br/>class = 0>, fillcolor="#e58139"] ;
423 -> 427 ;
428 [label=<age &le; 35.5<br/>gini = 0.133<br/>samples = 14<br/>value = [13, 1]<br/>class = 0>, fillcolor="#e78b48"] ;
418 -> 428 ;
429 [label=<gini = 0.0<br/>samples = 1<br/>value = [0, 1]<br/>class = 1>, fillcolor="#399de5"] ;
428 -> 429 ;
430 [label=<gini = 0.0<br/>samples = 13<br/>value = [13, 0]<br/>class = 0>, fillcolor="#e58139"] ;
428 -> 430 ;
431 [label=<occupation_Other-service &le; 0.5<br/>gini = 0.035<br/>samples = 2123<br/>value = [2085, 38]<br/>class = 0>, fillcolor="#e5833d"] ;
417 -> 431 ;
432 [label=<age &le; 50.5<br/>gini = 0.043<br/>samples = 1640<br/>value = [1604, 36]<br/>class = 0>, fillcolor="#e6843d"] ;
431 -> 432 ;
433 [label=<educational-num &le; 11.5<br/>gini = 0.029<br/>samples = 968<br/>value = [954, 14]<br/>class = 0>, fillcolor="#e5833c"] ;
432 -> 433 ;
434 [label=<occupation_Transport-moving &le; 0.5<br/>gini = 0.022<br/>samples = 910<br/>value = [900, 10]<br/>class = 0>, fillcolor="#e5823b"] ;
433 -> 434 ;
435 [label=<educational-num &le; 9.5<br/>gini = 0.02<br/>samples = 895<br/>value = [886, 9]<br/>class = 0>, fillcolor="#e5823b"] ;
434 -> 435 ;
436 [label=<occupation_Tech-support &le; 0.5<br/>gini = 0.011<br/>samples = 567<br/>value = [564, 3]<br/>class = 0>, fillcolor="#e5823a"] ;
435 -> 436 ;
437 [label=<age &le; 43.5<br/>gini = 0.007<br/>samples = 546<br/>value = [544, 2]<br/>class = 0>, fillcolor="#e5813a"] ;
436 -> 437 ;
438 [label=<gini = 0.0<br/>samples = 337<br/>value = [337, 0]<br/>class = 0>, fillcolor="#e58139"] ;
437 -> 438 ;
439 [label=<age &le; 44.5<br/>gini = 0.019<br/>samples = 209<br/>value = [207, 2]<br/>class = 0>, fillcolor="#e5823b"] ;
437 -> 439 ;
440 [label=<marital-status_Divorced &le; 0.5<br/>gini = 0.091<br/>samples = 21<br/>value = [20, 1]<br/>class = 0>, fillcolor="#e68743"] ;
439 -> 440 ;
441 [label=<gini = 0.0<br/>samples = 9<br/>value = [9, 0]<br/>class = 0>, fillcolor="#e58139"] ;
440 -> 441 ;
442 [label=<workclass_Private &le; 0.5<br/>gini = 0.153<br/>samples = 12<br/>value = [11, 1]<br/>class = 0>, fillcolor="#e78c4b"] ;
440 -> 442 ;
443 [label=<gini = 0.0<br/>samples = 4<br/>value = [4, 0]<br/>class = 0>, fillcolor="#e58139"] ;
442 -> 443 ;
444 [label=<occupation_Adm-clerical &le; 0.5<br/>gini = 0.219<br/>samples = 8<br/>value = [7, 1]<br/>class = 0>, fillcolor="#e99355"] ;
442 -> 444 ;
445 [label=<gini = 0.0<br/>samples = 3<br/>value = [3, 0]<br/>class = 0>, fillcolor="#e58139"] ;
444 -> 445 ;
446 [label=<educational-num &le; 7.5<br/>gini = 0.32<br/>samples = 5<br/>value = [4, 1]<br/>class = 0>, fillcolor="#eca06a"] ;
444 -> 446 ;
447 [label=<gini = 0.0<br/>samples = 1<br/>value = [1, 0]<br/>class = 0>, fillcolor="#e58139"] ;
446 -> 447 ;
448 [label=<gini = 0.375<br/>samples = 4<br/>value = [3, 1]<br/>class = 0>, fillcolor="#eeab7b"] ;
446 -> 448 ;
449 [label=<hours-per-week &le; 37.5<br/>gini = 0.011<br/>samples = 188<br/>value = [187, 1]<br/>class = 0>, fillcolor="#e5823a"] ;
439 -> 449 ;
450 [label=<hours-per-week &le; 36.5<br/>gini = 0.029<br/>samples = 67<br/>value = [66, 1]<br/>class = 0>, fillcolor="#e5833c"] ;
449 -> 450 ;
451 [label=<gini = 0.0<br/>samples = 59<br/>value = [59, 0]<br/>class = 0>, fillcolor="#e58139"] ;
450 -> 451 ;
452 [label=<marital-status_Divorced &le; 0.5<br/>gini = 0.219<br/>samples = 8<br/>value = [7, 1]<br/>class = 0>, fillcolor="#e99355"] ;
450 -> 452 ;
453 [label=<gini = 0.0<br/>samples = 5<br/>value = [5, 0]<br/>class = 0>, fillcolor="#e58139"] ;
452 -> 453 ;
454 [label=<occupation_Adm-clerical &le; 0.5<br/>gini = 0.444<br/>samples = 3<br/>value = [2, 1]<br/>class = 0>, fillcolor="#f2c09c"] ;
452 -> 454 ;
455 [label=<gini = 0.0<br/>samples = 1<br/>value = [1, 0]<br/>class = 0>, fillcolor="#e58139"] ;
454 -> 455 ;
456 [label=<gini = 0.5<br/>samples = 2<br/>value = [1, 1]<br/>class = 0>, fillcolor="#ffffff"] ;
454 -> 456 ;
457 [label=<gini = 0.0<br/>samples = 121<br/>value = [121, 0]<br/>class = 0>, fillcolor="#e58139"] ;
449 -> 457 ;
458 [label=<hours-per-week &le; 35.5<br/>gini = 0.091<br/>samples = 21<br/>value = [20, 1]<br/>class = 0>, fillcolor="#e68743"] ;
436 -> 458 ;
459 [label=<marital-status_Never-married &le; 0.5<br/>gini = 0.444<br/>samples = 3<br/>value = [2, 1]<br/>class = 0>, fillcolor="#f2c09c"] ;
458 -> 459 ;
460 [label=<gini = 0.0<br/>samples = 2<br/>value = [2, 0]<br/>class = 0>, fillcolor="#e58139"] ;
459 -> 460 ;
461 [label=<gini = 0.0<br/>samples = 1<br/>value = [0, 1]<br/>class = 1>, fillcolor="#399de5"] ;
459 -> 461 ;
462 [label=<gini = 0.0<br/>samples = 18<br/>value = [18, 0]<br/>class = 0>, fillcolor="#e58139"] ;
458 -> 462 ;
463 [label=<age &le; 37.5<br/>gini = 0.036<br/>samples = 328<br/>value = [322, 6]<br/>class = 0>, fillcolor="#e5833d"] ;
435 -> 463 ;
464 [label=<occupation_? &le; 0.5<br/>gini = 0.066<br/>samples = 88<br/>value = [85, 3]<br/>class = 0>, fillcolor="#e68540"] ;
463 -> 464 ;
465 [label=<hours-per-week &le; 27.5<br/>gini = 0.048<br/>samples = 81<br/>value = [79, 2]<br/>class = 0>, fillcolor="#e6843e"] ;
464 -> 465 ;
466 [label=<age &le; 36.5<br/>gini = 0.32<br/>samples = 5<br/>value = [4, 1]<br/>class = 0>, fillcolor="#eca06a"] ;
465 -> 466 ;
467 [label=<gini = 0.0<br/>samples = 4<br/>value = [4, 0]<br/>class = 0>, fillcolor="#e58139"] ;
466 -> 467 ;
468 [label=<gini = 0.0<br/>samples = 1<br/>value = [0, 1]<br/>class = 1>, fillcolor="#399de5"] ;
466 -> 468 ;
469 [label=<occupation_Adm-clerical &le; 0.5<br/>gini = 0.026<br/>samples = 76<br/>value = [75, 1]<br/>class = 0>, fillcolor="#e5833c"] ;
465 -> 469 ;
470 [label=<gini = 0.0<br/>samples = 33<br/>value = [33, 0]<br/>class = 0>, fillcolor="#e58139"] ;
469 -> 470 ;
471 [label=<marital-status_Divorced &le; 0.5<br/>gini = 0.045<br/>samples = 43<br/>value = [42, 1]<br/>class = 0>, fillcolor="#e6843e"] ;
469 -> 471 ;
472 [label=<gini = 0.0<br/>samples = 17<br/>value = [17, 0]<br/>class = 0>, fillcolor="#e58139"] ;
471 -> 472 ;
473 [label=<age &le; 35.5<br/>gini = 0.074<br/>samples = 26<br/>value = [25, 1]<br/>class = 0>, fillcolor="#e68641"] ;
471 -> 473 ;
474 [label=<age &le; 34.5<br/>gini = 0.124<br/>samples = 15<br/>value = [14, 1]<br/>class = 0>, fillcolor="#e78a47"] ;
473 -> 474 ;
475 [label=<gini = 0.0<br/>samples = 6<br/>value = [6, 0]<br/>class = 0>, fillcolor="#e58139"] ;
474 -> 475 ;
476 [label=<hours-per-week &le; 39.5<br/>gini = 0.198<br/>samples = 9<br/>value = [8, 1]<br/>class = 0>, fillcolor="#e89152"] ;
474 -> 476 ;
477 [label=<gini = 0.0<br/>samples = 2<br/>value = [2, 0]<br/>class = 0>, fillcolor="#e58139"] ;
476 -> 477 ;
478 [label=<workclass_Local-gov &le; 0.5<br/>gini = 0.245<br/>samples = 7<br/>value = [6, 1]<br/>class = 0>, fillcolor="#e9965a"] ;
476 -> 478 ;
479 [label=<educational-num &le; 10.5<br/>gini = 0.278<br/>samples = 6<br/>value = [5, 1]<br/>class = 0>, fillcolor="#ea9a61"] ;
478 -> 479 ;
480 [label=<gini = 0.32<br/>samples = 5<br/>value = [4, 1]<br/>class = 0>, fillcolor="#eca06a"] ;
479 -> 480 ;
481 [label=<gini = 0.0<br/>samples = 1<br/>value = [1, 0]<br/>class = 0>, fillcolor="#e58139"] ;
479 -> 481 ;
482 [label=<gini = 0.0<br/>samples = 1<br/>value = [1, 0]<br/>class = 0>, fillcolor="#e58139"] ;
478 -> 482 ;
483 [label=<gini = 0.0<br/>samples = 11<br/>value = [11, 0]<br/>class = 0>, fillcolor="#e58139"] ;
473 -> 483 ;
484 [label=<marital-status_Divorced &le; 0.5<br/>gini = 0.245<br/>samples = 7<br/>value = [6, 1]<br/>class = 0>, fillcolor="#e9965a"] ;
464 -> 484 ;
485 [label=<gini = 0.0<br/>samples = 5<br/>value = [5, 0]<br/>class = 0>, fillcolor="#e58139"] ;
484 -> 485 ;
486 [label=<hours-per-week &le; 36.0<br/>gini = 0.5<br/>samples = 2<br/>value = [1, 1]<br/>class = 0>, fillcolor="#ffffff"] ;
484 -> 486 ;
487 [label=<gini = 0.0<br/>samples = 1<br/>value = [1, 0]<br/>class = 0>, fillcolor="#e58139"] ;
486 -> 487 ;
488 [label=<gini = 0.0<br/>samples = 1<br/>value = [0, 1]<br/>class = 1>, fillcolor="#399de5"] ;
486 -> 488 ;
489 [label=<marital-status_Never-married &le; 0.5<br/>gini = 0.025<br/>samples = 240<br/>value = [237, 3]<br/>class = 0>, fillcolor="#e5833c"] ;
463 -> 489 ;
490 [label=<marital-status_Widowed &le; 0.5<br/>gini = 0.009<br/>samples = 211<br/>value = [210, 1]<br/>class = 0>, fillcolor="#e5823a"] ;
489 -> 490 ;
491 [label=<gini = 0.0<br/>samples = 198<br/>value = [198, 0]<br/>class = 0>, fillcolor="#e58139"] ;
490 -> 491 ;
492 [label=<hours-per-week &le; 38.0<br/>gini = 0.142<br/>samples = 13<br/>value = [12, 1]<br/>class = 0>, fillcolor="#e78c49"] ;
490 -> 492 ;
493 [label=<gini = 0.0<br/>samples = 9<br/>value = [9, 0]<br/>class = 0>, fillcolor="#e58139"] ;
492 -> 493 ;
494 [label=<workclass_Local-gov &le; 0.5<br/>gini = 0.375<br/>samples = 4<br/>value = [3, 1]<br/>class = 0>, fillcolor="#eeab7b"] ;
492 -> 494 ;
495 [label=<age &le; 47.5<br/>gini = 0.444<br/>samples = 3<br/>value = [2, 1]<br/>class = 0>, fillcolor="#f2c09c"] ;
494 -> 495 ;
496 [label=<gini = 0.0<br/>samples = 1<br/>value = [1, 0]<br/>class = 0>, fillcolor="#e58139"] ;
495 -> 496 ;
497 [label=<gini = 0.5<br/>samples = 2<br/>value = [1, 1]<br/>class = 0>, fillcolor="#ffffff"] ;
495 -> 497 ;
498 [label=<gini = 0.0<br/>samples = 1<br/>value = [1, 0]<br/>class = 0>, fillcolor="#e58139"] ;
494 -> 498 ;
499 [label=<occupation_Tech-support &le; 0.5<br/>gini = 0.128<br/>samples = 29<br/>value = [27, 2]<br/>class = 0>, fillcolor="#e78a48"] ;
489 -> 499 ;
500 [label=<age &le; 46.5<br/>gini = 0.071<br/>samples = 27<br/>value = [26, 1]<br/>class = 0>, fillcolor="#e68641"] ;
499 -> 500 ;
501 [label=<gini = 0.0<br/>samples = 24<br/>value = [24, 0]<br/>class = 0>, fillcolor="#e58139"] ;
500 -> 501 ;
502 [label=<workclass_Private &le; 0.5<br/>gini = 0.444<br/>samples = 3<br/>value = [2, 1]<br/>class = 0>, fillcolor="#f2c09c"] ;
500 -> 502 ;
503 [label=<gini = 0.0<br/>samples = 1<br/>value = [1, 0]<br/>class = 0>, fillcolor="#e58139"] ;
502 -> 503 ;
504 [label=<gini = 0.5<br/>samples = 2<br/>value = [1, 1]<br/>class = 0>, fillcolor="#ffffff"] ;
502 -> 504 ;
505 [label=<educational-num &le; 10.5<br/>gini = 0.5<br/>samples = 2<br/>value = [1, 1]<br/>class = 0>, fillcolor="#ffffff"] ;
499 -> 505 ;
506 [label=<gini = 0.0<br/>samples = 1<br/>value = [0, 1]<br/>class = 1>, fillcolor="#399de5"] ;
505 -> 506 ;
507 [label=<gini = 0.0<br/>samples = 1<br/>value = [1, 0]<br/>class = 0>, fillcolor="#e58139"] ;
505 -> 507 ;
508 [label=<marital-status_Never-married &le; 0.5<br/>gini = 0.124<br/>samples = 15<br/>value = [14, 1]<br/>class = 0>, fillcolor="#e78a47"] ;
434 -> 508 ;
509 [label=<gini = 0.0<br/>samples = 12<br/>value = [12, 0]<br/>class = 0>, fillcolor="#e58139"] ;
508 -> 509 ;
510 [label=<workclass_State-gov &le; 0.5<br/>gini = 0.444<br/>samples = 3<br/>value = [2, 1]<br/>class = 0>, fillcolor="#f2c09c"] ;
508 -> 510 ;
511 [label=<gini = 0.0<br/>samples = 2<br/>value = [2, 0]<br/>class = 0>, fillcolor="#e58139"] ;
510 -> 511 ;
512 [label=<gini = 0.0<br/>samples = 1<br/>value = [0, 1]<br/>class = 1>, fillcolor="#399de5"] ;
510 -> 512 ;
513 [label=<workclass_? &le; 0.5<br/>gini = 0.128<br/>samples = 58<br/>value = [54, 4]<br/>class = 0>, fillcolor="#e78a48"] ;
433 -> 513 ;
514 [label=<marital-status_Separated &le; 0.5<br/>gini = 0.105<br/>samples = 54<br/>value = [51, 3]<br/>class = 0>, fillcolor="#e78845"] ;
513 -> 514 ;
515 [label=<age &le; 39.5<br/>gini = 0.077<br/>samples = 50<br/>value = [48, 2]<br/>class = 0>, fillcolor="#e68641"] ;
514 -> 515 ;
516 [label=<age &le; 38.5<br/>gini = 0.159<br/>samples = 23<br/>value = [21, 2]<br/>class = 0>, fillcolor="#e78d4c"] ;
515 -> 516 ;
517 [label=<occupation_Sales &le; 0.5<br/>gini = 0.095<br/>samples = 20<br/>value = [19, 1]<br/>class = 0>, fillcolor="#e68843"] ;
516 -> 517 ;
518 [label=<gini = 0.0<br/>samples = 16<br/>value = [16, 0]<br/>class = 0>, fillcolor="#e58139"] ;
517 -> 518 ;
519 [label=<hours-per-week &le; 37.5<br/>gini = 0.375<br/>samples = 4<br/>value = [3, 1]<br/>class = 0>, fillcolor="#eeab7b"] ;
517 -> 519 ;
520 [label=<gini = 0.0<br/>samples = 2<br/>value = [2, 0]<br/>class = 0>, fillcolor="#e58139"] ;
519 -> 520 ;
521 [label=<gini = 0.5<br/>samples = 2<br/>value = [1, 1]<br/>class = 0>, fillcolor="#ffffff"] ;
519 -> 521 ;
522 [label=<occupation_Adm-clerical &le; 0.5<br/>gini = 0.444<br/>samples = 3<br/>value = [2, 1]<br/>class = 0>, fillcolor="#f2c09c"] ;
516 -> 522 ;
523 [label=<gini = 0.0<br/>samples = 2<br/>value = [2, 0]<br/>class = 0>, fillcolor="#e58139"] ;
522 -> 523 ;
524 [label=<gini = 0.0<br/>samples = 1<br/>value = [0, 1]<br/>class = 1>, fillcolor="#399de5"] ;
522 -> 524 ;
525 [label=<gini = 0.0<br/>samples = 27<br/>value = [27, 0]<br/>class = 0>, fillcolor="#e58139"] ;
515 -> 525 ;
526 [label=<age &le; 40.5<br/>gini = 0.375<br/>samples = 4<br/>value = [3, 1]<br/>class = 0>, fillcolor="#eeab7b"] ;
514 -> 526 ;
527 [label=<gini = 0.0<br/>samples = 2<br/>value = [2, 0]<br/>class = 0>, fillcolor="#e58139"] ;
526 -> 527 ;
528 [label=<age &le; 47.0<br/>gini = 0.5<br/>samples = 2<br/>value = [1, 1]<br/>class = 0>, fillcolor="#ffffff"] ;
526 -> 528 ;
529 [label=<gini = 0.0<br/>samples = 1<br/>value = [0, 1]<br/>class = 1>, fillcolor="#399de5"] ;
528 -> 529 ;
530 [label=<gini = 0.0<br/>samples = 1<br/>value = [1, 0]<br/>class = 0>, fillcolor="#e58139"] ;
528 -> 530 ;
531 [label=<age &le; 45.5<br/>gini = 0.375<br/>samples = 4<br/>value = [3, 1]<br/>class = 0>, fillcolor="#eeab7b"] ;
513 -> 531 ;
532 [label=<gini = 0.0<br/>samples = 3<br/>value = [3, 0]<br/>class = 0>, fillcolor="#e58139"] ;
531 -> 532 ;
533 [label=<gini = 0.0<br/>samples = 1<br/>value = [0, 1]<br/>class = 1>, fillcolor="#399de5"] ;
531 -> 533 ;
534 [label=<workclass_Self-emp-not-inc &le; 0.5<br/>gini = 0.063<br/>samples = 672<br/>value = [650, 22]<br/>class = 0>, fillcolor="#e68540"] ;
432 -> 534 ;
535 [label=<workclass_Local-gov &le; 0.5<br/>gini = 0.059<br/>samples = 659<br/>value = [639, 20]<br/>class = 0>, fillcolor="#e6853f"] ;
534 -> 535 ;
536 [label=<age &le; 58.5<br/>gini = 0.051<br/>samples = 615<br/>value = [599, 16]<br/>class = 0>, fillcolor="#e6843e"] ;
535 -> 536 ;
537 [label=<age &le; 57.5<br/>gini = 0.079<br/>samples = 293<br/>value = [281, 12]<br/>class = 0>, fillcolor="#e68641"] ;
536 -> 537 ;
538 [label=<marital-status_Married-spouse-absent &le; 0.5<br/>gini = 0.053<br/>samples = 258<br/>value = [251, 7]<br/>class = 0>, fillcolor="#e6853f"] ;
537 -> 538 ;
539 [label=<age &le; 51.5<br/>gini = 0.046<br/>samples = 255<br/>value = [249, 6]<br/>class = 0>, fillcolor="#e6843e"] ;
538 -> 539 ;
540 [label=<hours-per-week &le; 24.5<br/>gini = 0.117<br/>samples = 48<br/>value = [45, 3]<br/>class = 0>, fillcolor="#e78946"] ;
539 -> 540 ;
541 [label=<hours-per-week &le; 22.0<br/>gini = 0.5<br/>samples = 2<br/>value = [1, 1]<br/>class = 0>, fillcolor="#ffffff"] ;
540 -> 541 ;
542 [label=<gini = 0.0<br/>samples = 1<br/>value = [1, 0]<br/>class = 0>, fillcolor="#e58139"] ;
541 -> 542 ;
543 [label=<gini = 0.0<br/>samples = 1<br/>value = [0, 1]<br/>class = 1>, fillcolor="#399de5"] ;
541 -> 543 ;
544 [label=<educational-num &le; 9.5<br/>gini = 0.083<br/>samples = 46<br/>value = [44, 2]<br/>class = 0>, fillcolor="#e68742"] ;
540 -> 544 ;
545 [label=<gini = 0.0<br/>samples = 27<br/>value = [27, 0]<br/>class = 0>, fillcolor="#e58139"] ;
544 -> 545 ;
546 [label=<marital-status_Divorced &le; 0.5<br/>gini = 0.188<br/>samples = 19<br/>value = [17, 2]<br/>class = 0>, fillcolor="#e89050"] ;
544 -> 546 ;
547 [label=<gini = 0.0<br/>samples = 7<br/>value = [7, 0]<br/>class = 0>, fillcolor="#e58139"] ;
546 -> 547 ;
548 [label=<occupation_Sales &le; 0.5<br/>gini = 0.278<br/>samples = 12<br/>value = [10, 2]<br/>class = 0>, fillcolor="#ea9a61"] ;
546 -> 548 ;
549 [label=<workclass_Private &le; 0.5<br/>gini = 0.198<br/>samples = 9<br/>value = [8, 1]<br/>class = 0>, fillcolor="#e89152"] ;
548 -> 549 ;
550 [label=<gini = 0.0<br/>samples = 3<br/>value = [3, 0]<br/>class = 0>, fillcolor="#e58139"] ;
549 -> 550 ;
551 [label=<occupation_Adm-clerical &le; 0.5<br/>gini = 0.278<br/>samples = 6<br/>value = [5, 1]<br/>class = 0>, fillcolor="#ea9a61"] ;
549 -> 551 ;
552 [label=<gini = 0.0<br/>samples = 1<br/>value = [1, 0]<br/>class = 0>, fillcolor="#e58139"] ;
551 -> 552 ;
553 [label=<educational-num &le; 10.5<br/>gini = 0.32<br/>samples = 5<br/>value = [4, 1]<br/>class = 0>, fillcolor="#eca06a"] ;
551 -> 553 ;
554 [label=<gini = 0.375<br/>samples = 4<br/>value = [3, 1]<br/>class = 0>, fillcolor="#eeab7b"] ;
553 -> 554 ;
555 [label=<gini = 0.0<br/>samples = 1<br/>value = [1, 0]<br/>class = 0>, fillcolor="#e58139"] ;
553 -> 555 ;
556 [label=<native-country_United-States &le; 0.5<br/>gini = 0.444<br/>samples = 3<br/>value = [2, 1]<br/>class = 0>, fillcolor="#f2c09c"] ;
548 -> 556 ;
557 [label=<gini = 0.0<br/>samples = 1<br/>value = [1, 0]<br/>class = 0>, fillcolor="#e58139"] ;
556 -> 557 ;
558 [label=<hours-per-week &le; 35.0<br/>gini = 0.5<br/>samples = 2<br/>value = [1, 1]<br/>class = 0>, fillcolor="#ffffff"] ;
556 -> 558 ;
559 [label=<gini = 0.0<br/>samples = 1<br/>value = [1, 0]<br/>class = 0>, fillcolor="#e58139"] ;
558 -> 559 ;
560 [label=<gini = 0.0<br/>samples = 1<br/>value = [0, 1]<br/>class = 1>, fillcolor="#399de5"] ;
558 -> 560 ;
561 [label=<age &le; 56.5<br/>gini = 0.029<br/>samples = 207<br/>value = [204, 3]<br/>class = 0>, fillcolor="#e5833c"] ;
539 -> 561 ;
562 [label=<marital-status_Separated &le; 0.5<br/>gini = 0.011<br/>samples = 178<br/>value = [177, 1]<br/>class = 0>, fillcolor="#e5823a"] ;
561 -> 562 ;
563 [label=<gini = 0.0<br/>samples = 164<br/>value = [164, 0]<br/>class = 0>, fillcolor="#e58139"] ;
562 -> 563 ;
564 [label=<age &le; 54.5<br/>gini = 0.133<br/>samples = 14<br/>value = [13, 1]<br/>class = 0>, fillcolor="#e78b48"] ;
562 -> 564 ;
565 [label=<gini = 0.0<br/>samples = 9<br/>value = [9, 0]<br/>class = 0>, fillcolor="#e58139"] ;
564 -> 565 ;
566 [label=<hours-per-week &le; 36.0<br/>gini = 0.32<br/>samples = 5<br/>value = [4, 1]<br/>class = 0>, fillcolor="#eca06a"] ;
564 -> 566 ;
567 [label=<gini = 0.0<br/>samples = 2<br/>value = [2, 0]<br/>class = 0>, fillcolor="#e58139"] ;
566 -> 567 ;
568 [label=<occupation_Adm-clerical &le; 0.5<br/>gini = 0.444<br/>samples = 3<br/>value = [2, 1]<br/>class = 0>, fillcolor="#f2c09c"] ;
566 -> 568 ;
569 [label=<gini = 0.0<br/>samples = 1<br/>value = [1, 0]<br/>class = 0>, fillcolor="#e58139"] ;
568 -> 569 ;
570 [label=<gini = 0.5<br/>samples = 2<br/>value = [1, 1]<br/>class = 0>, fillcolor="#ffffff"] ;
568 -> 570 ;
571 [label=<occupation_Machine-op-inspct &le; 0.5<br/>gini = 0.128<br/>samples = 29<br/>value = [27, 2]<br/>class = 0>, fillcolor="#e78a48"] ;
561 -> 571 ;
572 [label=<marital-status_Widowed &le; 0.5<br/>gini = 0.077<br/>samples = 25<br/>value = [24, 1]<br/>class = 0>, fillcolor="#e68641"] ;
571 -> 572 ;
573 [label=<gini = 0.0<br/>samples = 18<br/>value = [18, 0]<br/>class = 0>, fillcolor="#e58139"] ;
572 -> 573 ;
574 [label=<hours-per-week &le; 37.0<br/>gini = 0.245<br/>samples = 7<br/>value = [6, 1]<br/>class = 0>, fillcolor="#e9965a"] ;
572 -> 574 ;
575 [label=<gini = 0.0<br/>samples = 4<br/>value = [4, 0]<br/>class = 0>, fillcolor="#e58139"] ;
574 -> 575 ;
576 [label=<educational-num &le; 9.5<br/>gini = 0.444<br/>samples = 3<br/>value = [2, 1]<br/>class = 0>, fillcolor="#f2c09c"] ;
574 -> 576 ;
577 [label=<gini = 0.0<br/>samples = 1<br/>value = [1, 0]<br/>class = 0>, fillcolor="#e58139"] ;
576 -> 577 ;
578 [label=<occupation_Adm-clerical &le; 0.5<br/>gini = 0.5<br/>samples = 2<br/>value = [1, 1]<br/>class = 0>, fillcolor="#ffffff"] ;
576 -> 578 ;
579 [label=<gini = 0.0<br/>samples = 1<br/>value = [1, 0]<br/>class = 0>, fillcolor="#e58139"] ;
578 -> 579 ;
580 [label=<gini = 0.0<br/>samples = 1<br/>value = [0, 1]<br/>class = 1>, fillcolor="#399de5"] ;
578 -> 580 ;
581 [label=<marital-status_Divorced &le; 0.5<br/>gini = 0.375<br/>samples = 4<br/>value = [3, 1]<br/>class = 0>, fillcolor="#eeab7b"] ;
571 -> 581 ;
582 [label=<gini = 0.0<br/>samples = 3<br/>value = [3, 0]<br/>class = 0>, fillcolor="#e58139"] ;
581 -> 582 ;
583 [label=<gini = 0.0<br/>samples = 1<br/>value = [0, 1]<br/>class = 1>, fillcolor="#399de5"] ;
581 -> 583 ;
584 [label=<hours-per-week &le; 28.0<br/>gini = 0.444<br/>samples = 3<br/>value = [2, 1]<br/>class = 0>, fillcolor="#f2c09c"] ;
538 -> 584 ;
585 [label=<gini = 0.0<br/>samples = 1<br/>value = [0, 1]<br/>class = 1>, fillcolor="#399de5"] ;
584 -> 585 ;
586 [label=<gini = 0.0<br/>samples = 2<br/>value = [2, 0]<br/>class = 0>, fillcolor="#e58139"] ;
584 -> 586 ;
587 [label=<marital-status_Widowed &le; 0.5<br/>gini = 0.245<br/>samples = 35<br/>value = [30, 5]<br/>class = 0>, fillcolor="#e9965a"] ;
537 -> 587 ;
588 [label=<occupation_Adm-clerical &le; 0.5<br/>gini = 0.08<br/>samples = 24<br/>value = [23, 1]<br/>class = 0>, fillcolor="#e68642"] ;
587 -> 588 ;
589 [label=<gini = 0.0<br/>samples = 10<br/>value = [10, 0]<br/>class = 0>, fillcolor="#e58139"] ;
588 -> 589 ;
590 [label=<educational-num &le; 9.5<br/>gini = 0.133<br/>samples = 14<br/>value = [13, 1]<br/>class = 0>, fillcolor="#e78b48"] ;
588 -> 590 ;
591 [label=<marital-status_Divorced &le; 0.5<br/>gini = 0.198<br/>samples = 9<br/>value = [8, 1]<br/>class = 0>, fillcolor="#e89152"] ;
590 -> 591 ;
592 [label=<gini = 0.0<br/>samples = 2<br/>value = [2, 0]<br/>class = 0>, fillcolor="#e58139"] ;
591 -> 592 ;
593 [label=<native-country_Canada &le; 0.5<br/>gini = 0.245<br/>samples = 7<br/>value = [6, 1]<br/>class = 0>, fillcolor="#e9965a"] ;
591 -> 593 ;
594 [label=<educational-num &le; 8.0<br/>gini = 0.278<br/>samples = 6<br/>value = [5, 1]<br/>class = 0>, fillcolor="#ea9a61"] ;
593 -> 594 ;
595 [label=<gini = 0.0<br/>samples = 1<br/>value = [1, 0]<br/>class = 0>, fillcolor="#e58139"] ;
594 -> 595 ;
596 [label=<gini = 0.32<br/>samples = 5<br/>value = [4, 1]<br/>class = 0>, fillcolor="#eca06a"] ;
594 -> 596 ;
597 [label=<gini = 0.0<br/>samples = 1<br/>value = [1, 0]<br/>class = 0>, fillcolor="#e58139"] ;
593 -> 597 ;
598 [label=<gini = 0.0<br/>samples = 5<br/>value = [5, 0]<br/>class = 0>, fillcolor="#e58139"] ;
590 -> 598 ;
599 [label=<occupation_Sales &le; 0.5<br/>gini = 0.463<br/>samples = 11<br/>value = [7, 4]<br/>class = 0>, fillcolor="#f4c9aa"] ;
587 -> 599 ;
600 [label=<hours-per-week &le; 39.0<br/>gini = 0.219<br/>samples = 8<br/>value = [7, 1]<br/>class = 0>, fillcolor="#e99355"] ;
599 -> 600 ;
601 [label=<gini = 0.0<br/>samples = 5<br/>value = [5, 0]<br/>class = 0>, fillcolor="#e58139"] ;
600 -> 601 ;
602 [label=<occupation_Machine-op-inspct &le; 0.5<br/>gini = 0.444<br/>samples = 3<br/>value = [2, 1]<br/>class = 0>, fillcolor="#f2c09c"] ;
600 -> 602 ;
603 [label=<gini = 0.5<br/>samples = 2<br/>value = [1, 1]<br/>class = 0>, fillcolor="#ffffff"] ;
602 -> 603 ;
604 [label=<gini = 0.0<br/>samples = 1<br/>value = [1, 0]<br/>class = 0>, fillcolor="#e58139"] ;
602 -> 604 ;
605 [label=<gini = 0.0<br/>samples = 3<br/>value = [0, 3]<br/>class = 1>, fillcolor="#399de5"] ;
599 -> 605 ;
606 [label=<hours-per-week &le; 39.0<br/>gini = 0.025<br/>samples = 322<br/>value = [318, 4]<br/>class = 0>, fillcolor="#e5833b"] ;
536 -> 606 ;
607 [label=<gini = 0.0<br/>samples = 184<br/>value = [184, 0]<br/>class = 0>, fillcolor="#e58139"] ;
606 -> 607 ;
608 [label=<occupation_? &le; 0.5<br/>gini = 0.056<br/>samples = 138<br/>value = [134, 4]<br/>class = 0>, fillcolor="#e6853f"] ;
606 -> 608 ;
609 [label=<age &le; 63.5<br/>gini = 0.036<br/>samples = 110<br/>value = [108, 2]<br/>class = 0>, fillcolor="#e5833d"] ;
608 -> 609 ;
610 [label=<gini = 0.0<br/>samples = 64<br/>value = [64, 0]<br/>class = 0>, fillcolor="#e58139"] ;
609 -> 610 ;
611 [label=<marital-status_Widowed &le; 0.5<br/>gini = 0.083<br/>samples = 46<br/>value = [44, 2]<br/>class = 0>, fillcolor="#e68742"] ;
609 -> 611 ;
612 [label=<gini = 0.0<br/>samples = 22<br/>value = [22, 0]<br/>class = 0>, fillcolor="#e58139"] ;
611 -> 612 ;
613 [label=<age &le; 66.5<br/>gini = 0.153<br/>samples = 24<br/>value = [22, 2]<br/>class = 0>, fillcolor="#e78c4b"] ;
611 -> 613 ;
614 [label=<age &le; 65.5<br/>gini = 0.245<br/>samples = 14<br/>value = [12, 2]<br/>class = 0>, fillcolor="#e9965a"] ;
613 -> 614 ;
615 [label=<age &le; 64.5<br/>gini = 0.153<br/>samples = 12<br/>value = [11, 1]<br/>class = 0>, fillcolor="#e78c4b"] ;
614 -> 615 ;
616 [label=<educational-num &le; 9.5<br/>gini = 0.278<br/>samples = 6<br/>value = [5, 1]<br/>class = 0>, fillcolor="#ea9a61"] ;
615 -> 616 ;
617 [label=<gini = 0.444<br/>samples = 3<br/>value = [2, 1]<br/>class = 0>, fillcolor="#f2c09c"] ;
616 -> 617 ;
618 [label=<gini = 0.0<br/>samples = 3<br/>value = [3, 0]<br/>class = 0>, fillcolor="#e58139"] ;
616 -> 618 ;
619 [label=<gini = 0.0<br/>samples = 6<br/>value = [6, 0]<br/>class = 0>, fillcolor="#e58139"] ;
615 -> 619 ;
620 [label=<gini = 0.5<br/>samples = 2<br/>value = [1, 1]<br/>class = 0>, fillcolor="#ffffff"] ;
614 -> 620 ;
621 [label=<gini = 0.0<br/>samples = 10<br/>value = [10, 0]<br/>class = 0>, fillcolor="#e58139"] ;
613 -> 621 ;
622 [label=<marital-status_Divorced &le; 0.5<br/>gini = 0.133<br/>samples = 28<br/>value = [26, 2]<br/>class = 0>, fillcolor="#e78b48"] ;
608 -> 622 ;
623 [label=<gini = 0.0<br/>samples = 20<br/>value = [20, 0]<br/>class = 0>, fillcolor="#e58139"] ;
622 -> 623 ;
624 [label=<educational-num &le; 7.5<br/>gini = 0.375<br/>samples = 8<br/>value = [6, 2]<br/>class = 0>, fillcolor="#eeab7b"] ;
622 -> 624 ;
625 [label=<gini = 0.0<br/>samples = 2<br/>value = [2, 0]<br/>class = 0>, fillcolor="#e58139"] ;
624 -> 625 ;
626 [label=<educational-num &le; 9.5<br/>gini = 0.444<br/>samples = 6<br/>value = [4, 2]<br/>class = 0>, fillcolor="#f2c09c"] ;
624 -> 626 ;
627 [label=<age &le; 66.0<br/>gini = 0.375<br/>samples = 4<br/>value = [3, 1]<br/>class = 0>, fillcolor="#eeab7b"] ;
626 -> 627 ;
628 [label=<gini = 0.0<br/>samples = 2<br/>value = [2, 0]<br/>class = 0>, fillcolor="#e58139"] ;
627 -> 628 ;
629 [label=<gini = 0.5<br/>samples = 2<br/>value = [1, 1]<br/>class = 0>, fillcolor="#ffffff"] ;
627 -> 629 ;
630 [label=<age &le; 61.0<br/>gini = 0.5<br/>samples = 2<br/>value = [1, 1]<br/>class = 0>, fillcolor="#ffffff"] ;
626 -> 630 ;
631 [label=<gini = 0.0<br/>samples = 1<br/>value = [0, 1]<br/>class = 1>, fillcolor="#399de5"] ;
630 -> 631 ;
632 [label=<gini = 0.0<br/>samples = 1<br/>value = [1, 0]<br/>class = 0>, fillcolor="#e58139"] ;
630 -> 632 ;
633 [label=<age &le; 63.5<br/>gini = 0.165<br/>samples = 44<br/>value = [40, 4]<br/>class = 0>, fillcolor="#e88e4d"] ;
535 -> 633 ;
634 [label=<marital-status_Divorced &le; 0.5<br/>gini = 0.062<br/>samples = 31<br/>value = [30, 1]<br/>class = 0>, fillcolor="#e68540"] ;
633 -> 634 ;
635 [label=<gini = 0.0<br/>samples = 19<br/>value = [19, 0]<br/>class = 0>, fillcolor="#e58139"] ;
634 -> 635 ;
636 [label=<age &le; 55.5<br/>gini = 0.153<br/>samples = 12<br/>value = [11, 1]<br/>class = 0>, fillcolor="#e78c4b"] ;
634 -> 636 ;
637 [label=<age &le; 54.5<br/>gini = 0.278<br/>samples = 6<br/>value = [5, 1]<br/>class = 0>, fillcolor="#ea9a61"] ;
636 -> 637 ;
638 [label=<gini = 0.0<br/>samples = 4<br/>value = [4, 0]<br/>class = 0>, fillcolor="#e58139"] ;
637 -> 638 ;
639 [label=<hours-per-week &le; 39.0<br/>gini = 0.5<br/>samples = 2<br/>value = [1, 1]<br/>class = 0>, fillcolor="#ffffff"] ;
637 -> 639 ;
640 [label=<gini = 0.0<br/>samples = 1<br/>value = [1, 0]<br/>class = 0>, fillcolor="#e58139"] ;
639 -> 640 ;
641 [label=<gini = 0.0<br/>samples = 1<br/>value = [0, 1]<br/>class = 1>, fillcolor="#399de5"] ;
639 -> 641 ;
642 [label=<gini = 0.0<br/>samples = 6<br/>value = [6, 0]<br/>class = 0>, fillcolor="#e58139"] ;
636 -> 642 ;
643 [label=<educational-num &le; 9.5<br/>gini = 0.355<br/>samples = 13<br/>value = [10, 3]<br/>class = 0>, fillcolor="#eda774"] ;
633 -> 643 ;
644 [label=<age &le; 67.0<br/>gini = 0.444<br/>samples = 9<br/>value = [6, 3]<br/>class = 0>, fillcolor="#f2c09c"] ;
643 -> 644 ;
645 [label=<hours-per-week &le; 37.5<br/>gini = 0.49<br/>samples = 7<br/>value = [4, 3]<br/>class = 0>, fillcolor="#f8e0ce"] ;
644 -> 645 ;
646 [label=<occupation_Tech-support &le; 0.5<br/>gini = 0.48<br/>samples = 5<br/>value = [2, 3]<br/>class = 1>, fillcolor="#bddef6"] ;
645 -> 646 ;
647 [label=<age &le; 65.5<br/>gini = 0.375<br/>samples = 4<br/>value = [1, 3]<br/>class = 1>, fillcolor="#7bbeee"] ;
646 -> 647 ;
648 [label=<gini = 0.0<br/>samples = 2<br/>value = [0, 2]<br/>class = 1>, fillcolor="#399de5"] ;
647 -> 648 ;
649 [label=<hours-per-week &le; 30.0<br/>gini = 0.5<br/>samples = 2<br/>value = [1, 1]<br/>class = 0>, fillcolor="#ffffff"] ;
647 -> 649 ;
650 [label=<gini = 0.0<br/>samples = 1<br/>value = [1, 0]<br/>class = 0>, fillcolor="#e58139"] ;
649 -> 650 ;
651 [label=<gini = 0.0<br/>samples = 1<br/>value = [0, 1]<br/>class = 1>, fillcolor="#399de5"] ;
649 -> 651 ;
652 [label=<gini = 0.0<br/>samples = 1<br/>value = [1, 0]<br/>class = 0>, fillcolor="#e58139"] ;
646 -> 652 ;
653 [label=<gini = 0.0<br/>samples = 2<br/>value = [2, 0]<br/>class = 0>, fillcolor="#e58139"] ;
645 -> 653 ;
654 [label=<gini = 0.0<br/>samples = 2<br/>value = [2, 0]<br/>class = 0>, fillcolor="#e58139"] ;
644 -> 654 ;
655 [label=<gini = 0.0<br/>samples = 4<br/>value = [4, 0]<br/>class = 0>, fillcolor="#e58139"] ;
643 -> 655 ;
656 [label=<age &le; 57.0<br/>gini = 0.26<br/>samples = 13<br/>value = [11, 2]<br/>class = 0>, fillcolor="#ea985d"] ;
534 -> 656 ;
657 [label=<occupation_Sales &le; 0.5<br/>gini = 0.48<br/>samples = 5<br/>value = [3, 2]<br/>class = 0>, fillcolor="#f6d5bd"] ;
656 -> 657 ;
658 [label=<educational-num &le; 7.5<br/>gini = 0.444<br/>samples = 3<br/>value = [1, 2]<br/>class = 1>, fillcolor="#9ccef2"] ;
657 -> 658 ;
659 [label=<gini = 0.0<br/>samples = 1<br/>value = [1, 0]<br/>class = 0>, fillcolor="#e58139"] ;
658 -> 659 ;
660 [label=<gini = 0.0<br/>samples = 2<br/>value = [0, 2]<br/>class = 1>, fillcolor="#399de5"] ;
658 -> 660 ;
661 [label=<gini = 0.0<br/>samples = 2<br/>value = [2, 0]<br/>class = 0>, fillcolor="#e58139"] ;
657 -> 661 ;
662 [label=<gini = 0.0<br/>samples = 8<br/>value = [8, 0]<br/>class = 0>, fillcolor="#e58139"] ;
656 -> 662 ;
663 [label=<workclass_State-gov &le; 0.5<br/>gini = 0.008<br/>samples = 483<br/>value = [481, 2]<br/>class = 0>, fillcolor="#e5823a"] ;
431 -> 663 ;
664 [label=<educational-num &le; 9.5<br/>gini = 0.004<br/>samples = 466<br/>value = [465, 1]<br/>class = 0>, fillcolor="#e58139"] ;
663 -> 664 ;
665 [label=<gini = 0.0<br/>samples = 352<br/>value = [352, 0]<br/>class = 0>, fillcolor="#e58139"] ;
664 -> 665 ;
666 [label=<age &le; 41.5<br/>gini = 0.017<br/>samples = 114<br/>value = [113, 1]<br/>class = 0>, fillcolor="#e5823b"] ;
664 -> 666 ;
667 [label=<age &le; 40.5<br/>gini = 0.044<br/>samples = 44<br/>value = [43, 1]<br/>class = 0>, fillcolor="#e6843e"] ;
666 -> 667 ;
668 [label=<gini = 0.0<br/>samples = 42<br/>value = [42, 0]<br/>class = 0>, fillcolor="#e58139"] ;
667 -> 668 ;
669 [label=<marital-status_Divorced &le; 0.5<br/>gini = 0.5<br/>samples = 2<br/>value = [1, 1]<br/>class = 0>, fillcolor="#ffffff"] ;
667 -> 669 ;
670 [label=<gini = 0.0<br/>samples = 1<br/>value = [1, 0]<br/>class = 0>, fillcolor="#e58139"] ;
669 -> 670 ;
671 [label=<gini = 0.0<br/>samples = 1<br/>value = [0, 1]<br/>class = 1>, fillcolor="#399de5"] ;
669 -> 671 ;
672 [label=<gini = 0.0<br/>samples = 70<br/>value = [70, 0]<br/>class = 0>, fillcolor="#e58139"] ;
666 -> 672 ;
673 [label=<age &le; 59.0<br/>gini = 0.111<br/>samples = 17<br/>value = [16, 1]<br/>class = 0>, fillcolor="#e78945"] ;
663 -> 673 ;
674 [label=<gini = 0.0<br/>samples = 14<br/>value = [14, 0]<br/>class = 0>, fillcolor="#e58139"] ;
673 -> 674 ;
675 [label=<hours-per-week &le; 28.0<br/>gini = 0.444<br/>samples = 3<br/>value = [2, 1]<br/>class = 0>, fillcolor="#f2c09c"] ;
673 -> 675 ;
676 [label=<gini = 0.0<br/>samples = 2<br/>value = [2, 0]<br/>class = 0>, fillcolor="#e58139"] ;
675 -> 676 ;
677 [label=<gini = 0.0<br/>samples = 1<br/>value = [0, 1]<br/>class = 1>, fillcolor="#399de5"] ;
675 -> 677 ;
678 [label=<race &le; 0.5<br/>gini = 0.161<br/>samples = 34<br/>value = [31, 3]<br/>class = 0>, fillcolor="#e88d4c"] ;
416 -> 678 ;
679 [label=<age &le; 42.0<br/>gini = 0.5<br/>samples = 2<br/>value = [1, 1]<br/>class = 0>, fillcolor="#ffffff"] ;
678 -> 679 ;
680 [label=<gini = 0.0<br/>samples = 1<br/>value = [0, 1]<br/>class = 1>, fillcolor="#399de5"] ;
679 -> 680 ;
681 [label=<gini = 0.0<br/>samples = 1<br/>value = [1, 0]<br/>class = 0>, fillcolor="#e58139"] ;
679 -> 681 ;
682 [label=<race &le; 3.0<br/>gini = 0.117<br/>samples = 32<br/>value = [30, 2]<br/>class = 0>, fillcolor="#e78946"] ;
678 -> 682 ;
683 [label=<age &le; 43.0<br/>gini = 0.26<br/>samples = 13<br/>value = [11, 2]<br/>class = 0>, fillcolor="#ea985d"] ;
682 -> 683 ;
684 [label=<age &le; 40.5<br/>gini = 0.408<br/>samples = 7<br/>value = [5, 2]<br/>class = 0>, fillcolor="#efb388"] ;
683 -> 684 ;
685 [label=<marital-status_Divorced &le; 0.5<br/>gini = 0.278<br/>samples = 6<br/>value = [5, 1]<br/>class = 0>, fillcolor="#ea9a61"] ;
684 -> 685 ;
686 [label=<age &le; 38.5<br/>gini = 0.444<br/>samples = 3<br/>value = [2, 1]<br/>class = 0>, fillcolor="#f2c09c"] ;
685 -> 686 ;
687 [label=<gini = 0.0<br/>samples = 2<br/>value = [2, 0]<br/>class = 0>, fillcolor="#e58139"] ;
686 -> 687 ;
688 [label=<gini = 0.0<br/>samples = 1<br/>value = [0, 1]<br/>class = 1>, fillcolor="#399de5"] ;
686 -> 688 ;
689 [label=<gini = 0.0<br/>samples = 3<br/>value = [3, 0]<br/>class = 0>, fillcolor="#e58139"] ;
685 -> 689 ;
690 [label=<gini = 0.0<br/>samples = 1<br/>value = [0, 1]<br/>class = 1>, fillcolor="#399de5"] ;
684 -> 690 ;
691 [label=<gini = 0.0<br/>samples = 6<br/>value = [6, 0]<br/>class = 0>, fillcolor="#e58139"] ;
683 -> 691 ;
692 [label=<gini = 0.0<br/>samples = 19<br/>value = [19, 0]<br/>class = 0>, fillcolor="#e58139"] ;
682 -> 692 ;
693 [label=<marital-status_Widowed &le; 0.5<br/>gini = 0.107<br/>samples = 123<br/>value = [116, 7]<br/>class = 0>, fillcolor="#e78945"] ;
415 -> 693 ;
694 [label=<occupation_Sales &le; 0.5<br/>gini = 0.234<br/>samples = 37<br/>value = [32, 5]<br/>class = 0>, fillcolor="#e99558"] ;
693 -> 694 ;
695 [label=<workclass_Federal-gov &le; 0.5<br/>gini = 0.161<br/>samples = 34<br/>value = [31, 3]<br/>class = 0>, fillcolor="#e88d4c"] ;
694 -> 695 ;
696 [label=<marital-status_Never-married &le; 0.5<br/>gini = 0.114<br/>samples = 33<br/>value = [31, 2]<br/>class = 0>, fillcolor="#e78946"] ;
695 -> 696 ;
697 [label=<gini = 0.0<br/>samples = 25<br/>value = [25, 0]<br/>class = 0>, fillcolor="#e58139"] ;
696 -> 697 ;
698 [label=<occupation_Adm-clerical &le; 0.5<br/>gini = 0.375<br/>samples = 8<br/>value = [6, 2]<br/>class = 0>, fillcolor="#eeab7b"] ;
696 -> 698 ;
699 [label=<gini = 0.0<br/>samples = 4<br/>value = [4, 0]<br/>class = 0>, fillcolor="#e58139"] ;
698 -> 699 ;
700 [label=<educational-num &le; 7.0<br/>gini = 0.5<br/>samples = 4<br/>value = [2, 2]<br/>class = 0>, fillcolor="#ffffff"] ;
698 -> 700 ;
701 [label=<gini = 0.0<br/>samples = 1<br/>value = [1, 0]<br/>class = 0>, fillcolor="#e58139"] ;
700 -> 701 ;
702 [label=<age &le; 75.5<br/>gini = 0.444<br/>samples = 3<br/>value = [1, 2]<br/>class = 1>, fillcolor="#9ccef2"] ;
700 -> 702 ;
703 [label=<gini = 0.0<br/>samples = 1<br/>value = [0, 1]<br/>class = 1>, fillcolor="#399de5"] ;
702 -> 703 ;
704 [label=<age &le; 83.0<br/>gini = 0.5<br/>samples = 2<br/>value = [1, 1]<br/>class = 0>, fillcolor="#ffffff"] ;
702 -> 704 ;
705 [label=<gini = 0.0<br/>samples = 1<br/>value = [1, 0]<br/>class = 0>, fillcolor="#e58139"] ;
704 -> 705 ;
706 [label=<gini = 0.0<br/>samples = 1<br/>value = [0, 1]<br/>class = 1>, fillcolor="#399de5"] ;
704 -> 706 ;
707 [label=<gini = 0.0<br/>samples = 1<br/>value = [0, 1]<br/>class = 1>, fillcolor="#399de5"] ;
695 -> 707 ;
708 [label=<hours-per-week &le; 36.5<br/>gini = 0.444<br/>samples = 3<br/>value = [1, 2]<br/>class = 1>, fillcolor="#9ccef2"] ;
694 -> 708 ;
709 [label=<gini = 0.0<br/>samples = 2<br/>value = [0, 2]<br/>class = 1>, fillcolor="#399de5"] ;
708 -> 709 ;
710 [label=<gini = 0.0<br/>samples = 1<br/>value = [1, 0]<br/>class = 0>, fillcolor="#e58139"] ;
708 -> 710 ;
711 [label=<age &le; 74.5<br/>gini = 0.045<br/>samples = 86<br/>value = [84, 2]<br/>class = 0>, fillcolor="#e6843e"] ;
693 -> 711 ;
712 [label=<occupation_Adm-clerical &le; 0.5<br/>gini = 0.117<br/>samples = 32<br/>value = [30, 2]<br/>class = 0>, fillcolor="#e78946"] ;
711 -> 712 ;
713 [label=<occupation_? &le; 0.5<br/>gini = 0.067<br/>samples = 29<br/>value = [28, 1]<br/>class = 0>, fillcolor="#e68640"] ;
712 -> 713 ;
714 [label=<gini = 0.0<br/>samples = 23<br/>value = [23, 0]<br/>class = 0>, fillcolor="#e58139"] ;
713 -> 714 ;
715 [label=<hours-per-week &le; 21.0<br/>gini = 0.278<br/>samples = 6<br/>value = [5, 1]<br/>class = 0>, fillcolor="#ea9a61"] ;
713 -> 715 ;
716 [label=<gini = 0.0<br/>samples = 4<br/>value = [4, 0]<br/>class = 0>, fillcolor="#e58139"] ;
715 -> 716 ;
717 [label=<hours-per-week &le; 23.5<br/>gini = 0.5<br/>samples = 2<br/>value = [1, 1]<br/>class = 0>, fillcolor="#ffffff"] ;
715 -> 717 ;
718 [label=<gini = 0.0<br/>samples = 1<br/>value = [0, 1]<br/>class = 1>, fillcolor="#399de5"] ;
717 -> 718 ;
719 [label=<gini = 0.0<br/>samples = 1<br/>value = [1, 0]<br/>class = 0>, fillcolor="#e58139"] ;
717 -> 719 ;
720 [label=<hours-per-week &le; 34.0<br/>gini = 0.444<br/>samples = 3<br/>value = [2, 1]<br/>class = 0>, fillcolor="#f2c09c"] ;
712 -> 720 ;
721 [label=<gini = 0.0<br/>samples = 2<br/>value = [2, 0]<br/>class = 0>, fillcolor="#e58139"] ;
720 -> 721 ;
722 [label=<gini = 0.0<br/>samples = 1<br/>value = [0, 1]<br/>class = 1>, fillcolor="#399de5"] ;
720 -> 722 ;
723 [label=<gini = 0.0<br/>samples = 54<br/>value = [54, 0]<br/>class = 0>, fillcolor="#e58139"] ;
711 -> 723 ;
724 [label=<educational-num &le; 5.5<br/>gini = 0.122<br/>samples = 107<br/>value = [100, 7]<br/>class = 0>, fillcolor="#e78a47"] ;
414 -> 724 ;
725 [label=<educational-num &le; 4.5<br/>gini = 0.444<br/>samples = 6<br/>value = [4, 2]<br/>class = 0>, fillcolor="#f2c09c"] ;
724 -> 725 ;
726 [label=<gini = 0.0<br/>samples = 3<br/>value = [3, 0]<br/>class = 0>, fillcolor="#e58139"] ;
725 -> 726 ;
727 [label=<age &le; 50.5<br/>gini = 0.444<br/>samples = 3<br/>value = [1, 2]<br/>class = 1>, fillcolor="#9ccef2"] ;
725 -> 727 ;
728 [label=<gini = 0.0<br/>samples = 1<br/>value = [1, 0]<br/>class = 0>, fillcolor="#e58139"] ;
727 -> 728 ;
729 [label=<gini = 0.0<br/>samples = 2<br/>value = [0, 2]<br/>class = 1>, fillcolor="#399de5"] ;
727 -> 729 ;
730 [label=<workclass_Federal-gov &le; 0.5<br/>gini = 0.094<br/>samples = 101<br/>value = [96, 5]<br/>class = 0>, fillcolor="#e68843"] ;
724 -> 730 ;
731 [label=<age &le; 43.5<br/>gini = 0.078<br/>samples = 99<br/>value = [95, 4]<br/>class = 0>, fillcolor="#e68641"] ;
730 -> 731 ;
732 [label=<gini = 0.0<br/>samples = 46<br/>value = [46, 0]<br/>class = 0>, fillcolor="#e58139"] ;
731 -> 732 ;
733 [label=<age &le; 44.5<br/>gini = 0.14<br/>samples = 53<br/>value = [49, 4]<br/>class = 0>, fillcolor="#e78b49"] ;
731 -> 733 ;
734 [label=<gini = 0.0<br/>samples = 1<br/>value = [0, 1]<br/>class = 1>, fillcolor="#399de5"] ;
733 -> 734 ;
735 [label=<marital-status_Never-married &le; 0.5<br/>gini = 0.109<br/>samples = 52<br/>value = [49, 3]<br/>class = 0>, fillcolor="#e78945"] ;
733 -> 735 ;
736 [label=<age &le; 46.5<br/>gini = 0.043<br/>samples = 45<br/>value = [44, 1]<br/>class = 0>, fillcolor="#e6843d"] ;
735 -> 736 ;
737 [label=<marital-status_Divorced &le; 0.5<br/>gini = 0.245<br/>samples = 7<br/>value = [6, 1]<br/>class = 0>, fillcolor="#e9965a"] ;
736 -> 737 ;
738 [label=<gini = 0.0<br/>samples = 4<br/>value = [4, 0]<br/>class = 0>, fillcolor="#e58139"] ;
737 -> 738 ;
739 [label=<age &le; 45.5<br/>gini = 0.444<br/>samples = 3<br/>value = [2, 1]<br/>class = 0>, fillcolor="#f2c09c"] ;
737 -> 739 ;
740 [label=<gini = 0.0<br/>samples = 1<br/>value = [1, 0]<br/>class = 0>, fillcolor="#e58139"] ;
739 -> 740 ;
741 [label=<gini = 0.5<br/>samples = 2<br/>value = [1, 1]<br/>class = 0>, fillcolor="#ffffff"] ;
739 -> 741 ;
742 [label=<gini = 0.0<br/>samples = 38<br/>value = [38, 0]<br/>class = 0>, fillcolor="#e58139"] ;
736 -> 742 ;
743 [label=<hours-per-week &le; 39.5<br/>gini = 0.408<br/>samples = 7<br/>value = [5, 2]<br/>class = 0>, fillcolor="#efb388"] ;
735 -> 743 ;
744 [label=<hours-per-week &le; 36.5<br/>gini = 0.444<br/>samples = 3<br/>value = [1, 2]<br/>class = 1>, fillcolor="#9ccef2"] ;
743 -> 744 ;
745 [label=<gini = 0.0<br/>samples = 1<br/>value = [1, 0]<br/>class = 0>, fillcolor="#e58139"] ;
744 -> 745 ;
746 [label=<gini = 0.0<br/>samples = 2<br/>value = [0, 2]<br/>class = 1>, fillcolor="#399de5"] ;
744 -> 746 ;
747 [label=<gini = 0.0<br/>samples = 4<br/>value = [4, 0]<br/>class = 0>, fillcolor="#e58139"] ;
743 -> 747 ;
748 [label=<marital-status_Never-married &le; 0.5<br/>gini = 0.5<br/>samples = 2<br/>value = [1, 1]<br/>class = 0>, fillcolor="#ffffff"] ;
730 -> 748 ;
749 [label=<gini = 0.0<br/>samples = 1<br/>value = [0, 1]<br/>class = 1>, fillcolor="#399de5"] ;
748 -> 749 ;
750 [label=<gini = 0.0<br/>samples = 1<br/>value = [1, 0]<br/>class = 0>, fillcolor="#e58139"] ;
748 -> 750 ;
751 [label=<hours-per-week &le; 32.5<br/>gini = 0.444<br/>samples = 3<br/>value = [2, 1]<br/>class = 0>, fillcolor="#f2c09c"] ;
413 -> 751 ;
752 [label=<gini = 0.0<br/>samples = 2<br/>value = [2, 0]<br/>class = 0>, fillcolor="#e58139"] ;
751 -> 752 ;
753 [label=<gini = 0.0<br/>samples = 1<br/>value = [0, 1]<br/>class = 1>, fillcolor="#399de5"] ;
751 -> 753 ;
754 [label=<occupation_Machine-op-inspct &le; 0.5<br/>gini = 0.5<br/>samples = 2<br/>value = [1, 1]<br/>class = 0>, fillcolor="#ffffff"] ;
412 -> 754 ;
755 [label=<gini = 0.0<br/>samples = 1<br/>value = [0, 1]<br/>class = 1>, fillcolor="#399de5"] ;
754 -> 755 ;
756 [label=<gini = 0.0<br/>samples = 1<br/>value = [1, 0]<br/>class = 0>, fillcolor="#e58139"] ;
754 -> 756 ;
757 [label=<occupation_Tech-support &le; 0.5<br/>gini = 0.095<br/>samples = 1830<br/>value = [1739, 91]<br/>class = 0>, fillcolor="#e68843"] ;
411 -> 757 ;
758 [label=<occupation_Adm-clerical &le; 0.5<br/>gini = 0.085<br/>samples = 1773<br/>value = [1694, 79]<br/>class = 0>, fillcolor="#e68742"] ;
757 -> 758 ;
759 [label=<age &le; 39.5<br/>gini = 0.076<br/>samples = 1617<br/>value = [1553, 64]<br/>class = 0>, fillcolor="#e68641"] ;
758 -> 759 ;
760 [label=<native-country_England &le; 0.5<br/>gini = 0.029<br/>samples = 536<br/>value = [528, 8]<br/>class = 0>, fillcolor="#e5833c"] ;
759 -> 760 ;
761 [label=<native-country_Puerto-Rico &le; 0.5<br/>gini = 0.026<br/>samples = 535<br/>value = [528, 7]<br/>class = 0>, fillcolor="#e5833c"] ;
760 -> 761 ;
762 [label=<workclass_Self-emp-not-inc &le; 0.5<br/>gini = 0.022<br/>samples = 530<br/>value = [524, 6]<br/>class = 0>, fillcolor="#e5823b"] ;
761 -> 762 ;
763 [label=<marital-status_Married-spouse-absent &le; 0.5<br/>gini = 0.016<br/>samples = 494<br/>value = [490, 4]<br/>class = 0>, fillcolor="#e5823b"] ;
762 -> 763 ;
764 [label=<occupation_Sales &le; 0.5<br/>gini = 0.012<br/>samples = 478<br/>value = [475, 3]<br/>class = 0>, fillcolor="#e5823a"] ;
763 -> 764 ;
765 [label=<marital-status_Divorced &le; 0.5<br/>gini = 0.009<br/>samples = 453<br/>value = [451, 2]<br/>class = 0>, fillcolor="#e5823a"] ;
764 -> 765 ;
766 [label=<gini = 0.0<br/>samples = 294<br/>value = [294, 0]<br/>class = 0>, fillcolor="#e58139"] ;
765 -> 766 ;
767 [label=<age &le; 36.5<br/>gini = 0.025<br/>samples = 159<br/>value = [157, 2]<br/>class = 0>, fillcolor="#e5833c"] ;
765 -> 767 ;
768 [label=<gini = 0.0<br/>samples = 74<br/>value = [74, 0]<br/>class = 0>, fillcolor="#e58139"] ;
767 -> 768 ;
769 [label=<age &le; 37.5<br/>gini = 0.046<br/>samples = 85<br/>value = [83, 2]<br/>class = 0>, fillcolor="#e6843e"] ;
767 -> 769 ;
770 [label=<occupation_Machine-op-inspct &le; 0.5<br/>gini = 0.137<br/>samples = 27<br/>value = [25, 2]<br/>class = 0>, fillcolor="#e78b49"] ;
769 -> 770 ;
771 [label=<occupation_Craft-repair &le; 0.5<br/>gini = 0.095<br/>samples = 20<br/>value = [19, 1]<br/>class = 0>, fillcolor="#e68843"] ;
770 -> 771 ;
772 [label=<gini = 0.0<br/>samples = 9<br/>value = [9, 0]<br/>class = 0>, fillcolor="#e58139"] ;
771 -> 772 ;
773 [label=<educational-num &le; 8.5<br/>gini = 0.165<br/>samples = 11<br/>value = [10, 1]<br/>class = 0>, fillcolor="#e88e4d"] ;
771 -> 773 ;
774 [label=<gini = 0.0<br/>samples = 4<br/>value = [4, 0]<br/>class = 0>, fillcolor="#e58139"] ;
773 -> 774 ;
775 [label=<workclass_Private &le; 0.5<br/>gini = 0.245<br/>samples = 7<br/>value = [6, 1]<br/>class = 0>, fillcolor="#e9965a"] ;
773 -> 775 ;
776 [label=<gini = 0.0<br/>samples = 1<br/>value = [1, 0]<br/>class = 0>, fillcolor="#e58139"] ;
775 -> 776 ;
777 [label=<educational-num &le; 9.5<br/>gini = 0.278<br/>samples = 6<br/>value = [5, 1]<br/>class = 0>, fillcolor="#ea9a61"] ;
775 -> 777 ;
778 [label=<hours-per-week &le; 39.0<br/>gini = 0.32<br/>samples = 5<br/>value = [4, 1]<br/>class = 0>, fillcolor="#eca06a"] ;
777 -> 778 ;
779 [label=<gini = 0.0<br/>samples = 1<br/>value = [1, 0]<br/>class = 0>, fillcolor="#e58139"] ;
778 -> 779 ;
780 [label=<gini = 0.375<br/>samples = 4<br/>value = [3, 1]<br/>class = 0>, fillcolor="#eeab7b"] ;
778 -> 780 ;
781 [label=<gini = 0.0<br/>samples = 1<br/>value = [1, 0]<br/>class = 0>, fillcolor="#e58139"] ;
777 -> 781 ;
782 [label=<educational-num &le; 9.5<br/>gini = 0.245<br/>samples = 7<br/>value = [6, 1]<br/>class = 0>, fillcolor="#e9965a"] ;
770 -> 782 ;
783 [label=<gini = 0.32<br/>samples = 5<br/>value = [4, 1]<br/>class = 0>, fillcolor="#eca06a"] ;
782 -> 783 ;
784 [label=<gini = 0.0<br/>samples = 2<br/>value = [2, 0]<br/>class = 0>, fillcolor="#e58139"] ;
782 -> 784 ;
785 [label=<gini = 0.0<br/>samples = 58<br/>value = [58, 0]<br/>class = 0>, fillcolor="#e58139"] ;
769 -> 785 ;
786 [label=<educational-num &le; 9.5<br/>gini = 0.077<br/>samples = 25<br/>value = [24, 1]<br/>class = 0>, fillcolor="#e68641"] ;
764 -> 786 ;
787 [label=<age &le; 35.5<br/>gini = 0.219<br/>samples = 8<br/>value = [7, 1]<br/>class = 0>, fillcolor="#e99355"] ;
786 -> 787 ;
788 [label=<hours-per-week &le; 39.0<br/>gini = 0.444<br/>samples = 3<br/>value = [2, 1]<br/>class = 0>, fillcolor="#f2c09c"] ;
787 -> 788 ;
789 [label=<gini = 0.0<br/>samples = 1<br/>value = [1, 0]<br/>class = 0>, fillcolor="#e58139"] ;
788 -> 789 ;
